digraph Tree {
node [shape=box, style="rounded", color="black", fontname="helvetica"] ;
edge [fontname="helvetica"] ;
0 [label="num_comments <= 28.1\nsquared_error = 31.8\nsamples = 1024\nvalue = 6.6"] ;
1 [label="score <= 17.1\nsquared_error = 33.4\nsamples = 755\nvalue = 8.1"] ;
0 -> 1 [labeldistance=2.5, labelangle=45, headlabel="True"] ;
2 [label="score <= 1.2\nsquared_error = 29.4\nsamples = 508\nvalue = 9.2"] ;
1 -> 2 ;
3 [label="score <= 1.0\nsquared_error = 419.0\nsamples = 29\nvalue = 12.7"] ;
2 -> 3 ;
4 [label="Negative_Sentiment <= 0.1\nsquared_error = 13.2\nsamples = 26\nvalue = 7.5"] ;
3 -> 4 ;
5 [label="Positive_Sentiment <= 0.1\nsquared_error = 9.8\nsamples = 15\nvalue = 9.9"] ;
4 -> 5 ;
6 [label="num_comments <= 0.5\nsquared_error = 6.4\nsamples = 11\nvalue = 8.3"] ;
5 -> 6 ;
7 [label="Neutral_Sentiment <= 1.0\nsquared_error = 2.3\nsamples = 7\nvalue = 7.0"] ;
6 -> 7 ;
8 [label="squared_error = 0.0\nsamples = 1\nvalue = 5.8"] ;
7 -> 8 ;
9 [label="score <= 0.2\nsquared_error = 2.3\nsamples = 6\nvalue = 7.2"] ;
7 -> 9 ;
10 [label="squared_error = 0.0\nsamples = 1\nvalue = 6.4"] ;
9 -> 10 ;
11 [label="score <= 0.8\nsquared_error = 2.6\nsamples = 5\nvalue = 7.3"] ;
9 -> 11 ;
12 [label="squared_error = 0.0\nsamples = 1\nvalue = 7.5"] ;
11 -> 12 ;
13 [label="squared_error = 3.9\nsamples = 4\nvalue = 7.2"] ;
11 -> 13 ;
14 [label="score <= 0.2\nsquared_error = 6.6\nsamples = 4\nvalue = 10.2"] ;
6 -> 14 ;
15 [label="squared_error = 0.0\nsamples = 1\nvalue = 13.1"] ;
14 -> 15 ;
16 [label="Positive_Sentiment <= 0.1\nsquared_error = 2.1\nsamples = 3\nvalue = 8.3"] ;
14 -> 16 ;
17 [label="Neutral_Sentiment <= 1.0\nsquared_error = 0.0\nsamples = 2\nvalue = 9.3"] ;
16 -> 17 ;
18 [label="squared_error = 0.0\nsamples = 1\nvalue = 9.4"] ;
17 -> 18 ;
19 [label="squared_error = -0.0\nsamples = 1\nvalue = 9.3"] ;
17 -> 19 ;
20 [label="squared_error = 0.0\nsamples = 1\nvalue = 6.3"] ;
16 -> 20 ;
21 [label="Neutral_Sentiment <= 0.7\nsquared_error = 0.9\nsamples = 4\nvalue = 13.1"] ;
5 -> 21 ;
22 [label="score <= 0.8\nsquared_error = 0.1\nsamples = 2\nvalue = 12.3"] ;
21 -> 22 ;
23 [label="squared_error = 0.0\nsamples = 1\nvalue = 12.5"] ;
22 -> 23 ;
24 [label="squared_error = 0.0\nsamples = 1\nvalue = 11.6"] ;
22 -> 24 ;
25 [label="Positive_Sentiment <= 0.2\nsquared_error = 0.0\nsamples = 2\nvalue = 14.1"] ;
21 -> 25 ;
26 [label="squared_error = 0.0\nsamples = 1\nvalue = 14.2"] ;
25 -> 26 ;
27 [label="squared_error = 0.0\nsamples = 1\nvalue = 14.1"] ;
25 -> 27 ;
28 [label="Negative_Sentiment <= 0.1\nsquared_error = 4.4\nsamples = 11\nvalue = 5.0"] ;
4 -> 28 ;
29 [label="Negative_Sentiment <= 0.1\nsquared_error = 0.8\nsamples = 7\nvalue = 3.7"] ;
28 -> 29 ;
30 [label="squared_error = 0.0\nsamples = 1\nvalue = 5.4"] ;
29 -> 30 ;
31 [label="Negative_Sentiment <= 0.1\nsquared_error = 0.3\nsamples = 6\nvalue = 3.3"] ;
29 -> 31 ;
32 [label="Negative_Sentiment <= 0.1\nsquared_error = 0.0\nsamples = 5\nvalue = 3.7"] ;
31 -> 32 ;
33 [label="squared_error = 0.0\nsamples = 1\nvalue = 3.9"] ;
32 -> 33 ;
34 [label="num_comments <= 26.7\nsquared_error = 0.0\nsamples = 4\nvalue = 3.7"] ;
32 -> 34 ;
35 [label="Positive_Sentiment <= 0.1\nsquared_error = 0.0\nsamples = 3\nvalue = 3.6"] ;
34 -> 35 ;
36 [label="squared_error = 0.0\nsamples = 2\nvalue = 3.6"] ;
35 -> 36 ;
37 [label="squared_error = -0.0\nsamples = 1\nvalue = 3.6"] ;
35 -> 37 ;
38 [label="squared_error = 0.0\nsamples = 1\nvalue = 3.8"] ;
34 -> 38 ;
39 [label="squared_error = 0.0\nsamples = 1\nvalue = 2.4"] ;
31 -> 39 ;
40 [label="Negative_Sentiment <= 0.1\nsquared_error = 1.7\nsamples = 4\nvalue = 7.4"] ;
28 -> 40 ;
41 [label="squared_error = 0.0\nsamples = 1\nvalue = 9.5"] ;
40 -> 41 ;
42 [label="Negative_Sentiment <= 0.2\nsquared_error = 0.0\nsamples = 3\nvalue = 6.6"] ;
40 -> 42 ;
43 [label="squared_error = 0.0\nsamples = 1\nvalue = 6.6"] ;
42 -> 43 ;
44 [label="Negative_Sentiment <= 0.2\nsquared_error = 0.0\nsamples = 2\nvalue = 6.6"] ;
42 -> 44 ;
45 [label="squared_error = 0.0\nsamples = 1\nvalue = 6.5"] ;
44 -> 45 ;
46 [label="squared_error = 0.0\nsamples = 1\nvalue = 6.6"] ;
44 -> 46 ;
47 [label="Compound_Sentiment <= 0.1\nsquared_error = 1664.9\nsamples = 3\nvalue = 54.9"] ;
3 -> 47 ;
48 [label="squared_error = 0.0\nsamples = 1\nvalue = 103.5"] ;
47 -> 48 ;
49 [label="Positive_Sentiment <= 0.2\nsquared_error = 149.8\nsamples = 2\nvalue = 22.5"] ;
47 -> 49 ;
50 [label="squared_error = 0.0\nsamples = 1\nvalue = 13.8"] ;
49 -> 50 ;
51 [label="squared_error = -0.0\nsamples = 1\nvalue = 39.8"] ;
49 -> 51 ;
52 [label="score <= 8.9\nsquared_error = 5.6\nsamples = 479\nvalue = 9.0"] ;
2 -> 52 ;
53 [label="num_comments <= 2.1\nsquared_error = 5.6\nsamples = 338\nvalue = 9.4"] ;
52 -> 53 ;
54 [label="Compound_Sentiment <= 0.3\nsquared_error = 2.4\nsamples = 18\nvalue = 6.6"] ;
53 -> 54 ;
55 [label="score <= 5.2\nsquared_error = 0.3\nsamples = 15\nvalue = 6.1"] ;
54 -> 55 ;
56 [label="Compound_Sentiment <= 0.1\nsquared_error = 0.1\nsamples = 12\nvalue = 6.3"] ;
55 -> 56 ;
57 [label="Positive_Sentiment <= 0.1\nsquared_error = 0.1\nsamples = 9\nvalue = 6.4"] ;
56 -> 57 ;
58 [label="num_comments <= 0.2\nsquared_error = 0.0\nsamples = 8\nvalue = 6.3"] ;
57 -> 58 ;
59 [label="score <= 2.8\nsquared_error = 0.0\nsamples = 2\nvalue = 6.5"] ;
58 -> 59 ;
60 [label="squared_error = 0.0\nsamples = 1\nvalue = 6.4"] ;
59 -> 60 ;
61 [label="squared_error = 0.0\nsamples = 1\nvalue = 6.6"] ;
59 -> 61 ;
62 [label="score <= 2.8\nsquared_error = 0.0\nsamples = 6\nvalue = 6.2"] ;
58 -> 62 ;
63 [label="squared_error = 0.0\nsamples = 1\nvalue = 5.9"] ;
62 -> 63 ;
64 [label="num_comments <= 1.2\nsquared_error = 0.0\nsamples = 5\nvalue = 6.3"] ;
62 -> 64 ;
65 [label="score <= 3.8\nsquared_error = 0.0\nsamples = 3\nvalue = 6.3"] ;
64 -> 65 ;
66 [label="squared_error = 0.0\nsamples = 1\nvalue = 6.2"] ;
65 -> 66 ;
67 [label="Neutral_Sentiment <= 0.9\nsquared_error = 0.0\nsamples = 2\nvalue = 6.4"] ;
65 -> 67 ;
68 [label="squared_error = 0.0\nsamples = 1\nvalue = 6.3"] ;
67 -> 68 ;
69 [label="squared_error = -0.0\nsamples = 1\nvalue = 6.4"] ;
67 -> 69 ;
70 [label="score <= 3.5\nsquared_error = 0.0\nsamples = 2\nvalue = 6.2"] ;
64 -> 70 ;
71 [label="squared_error = 0.0\nsamples = 1\nvalue = 6.3"] ;
70 -> 71 ;
72 [label="squared_error = 0.0\nsamples = 1\nvalue = 5.8"] ;
70 -> 72 ;
73 [label="squared_error = 0.0\nsamples = 1\nvalue = 7.6"] ;
57 -> 73 ;
74 [label="Compound_Sentiment <= 0.3\nsquared_error = 0.0\nsamples = 3\nvalue = 5.9"] ;
56 -> 74 ;
75 [label="num_comments <= 1.5\nsquared_error = 0.0\nsamples = 2\nvalue = 5.9"] ;
74 -> 75 ;
76 [label="squared_error = 0.0\nsamples = 1\nvalue = 5.8"] ;
75 -> 76 ;
77 [label="squared_error = 0.0\nsamples = 1\nvalue = 5.9"] ;
75 -> 77 ;
78 [label="squared_error = 0.0\nsamples = 1\nvalue = 6.1"] ;
74 -> 78 ;
79 [label="score <= 6.2\nsquared_error = 0.2\nsamples = 3\nvalue = 5.4"] ;
55 -> 79 ;
80 [label="Negative_Sentiment <= 0.0\nsquared_error = 0.0\nsamples = 2\nvalue = 5.7"] ;
79 -> 80 ;
81 [label="squared_error = 0.0\nsamples = 1\nvalue = 5.8"] ;
80 -> 81 ;
82 [label="squared_error = 0.0\nsamples = 1\nvalue = 5.6"] ;
80 -> 82 ;
83 [label="squared_error = 0.0\nsamples = 1\nvalue = 4.6"] ;
79 -> 83 ;
84 [label="Positive_Sentiment <= 0.2\nsquared_error = 1.9\nsamples = 3\nvalue = 10.5"] ;
54 -> 84 ;
85 [label="squared_error = 0.0\nsamples = 1\nvalue = 8.8"] ;
84 -> 85 ;
86 [label="Neutral_Sentiment <= 0.6\nsquared_error = 0.6\nsamples = 2\nvalue = 11.4"] ;
84 -> 86 ;
87 [label="squared_error = 0.0\nsamples = 1\nvalue = 12.2"] ;
86 -> 87 ;
88 [label="squared_error = -0.0\nsamples = 1\nvalue = 10.6"] ;
86 -> 88 ;
89 [label="num_comments <= 8.3\nsquared_error = 5.4\nsamples = 320\nvalue = 9.5"] ;
53 -> 89 ;
90 [label="score <= 5.9\nsquared_error = 6.7\nsamples = 138\nvalue = 9.0"] ;
89 -> 90 ;
91 [label="Positive_Sentiment <= 0.3\nsquared_error = 5.5\nsamples = 97\nvalue = 9.6"] ;
90 -> 91 ;
92 [label="num_comments <= 7.0\nsquared_error = 5.2\nsamples = 92\nvalue = 9.4"] ;
91 -> 92 ;
93 [label="num_comments <= 3.2\nsquared_error = 5.9\nsamples = 66\nvalue = 9.1"] ;
92 -> 93 ;
94 [label="score <= 2.4\nsquared_error = 4.2\nsamples = 13\nvalue = 10.6"] ;
93 -> 94 ;
95 [label="Negative_Sentiment <= 0.0\nsquared_error = 0.2\nsamples = 3\nvalue = 9.0"] ;
94 -> 95 ;
96 [label="score <= 2.0\nsquared_error = 0.0\nsamples = 2\nvalue = 8.7"] ;
95 -> 96 ;
97 [label="squared_error = 0.0\nsamples = 1\nvalue = 8.5"] ;
96 -> 97 ;
98 [label="squared_error = 0.0\nsamples = 1\nvalue = 8.8"] ;
96 -> 98 ;
99 [label="squared_error = 0.0\nsamples = 1\nvalue = 9.7"] ;
95 -> 99 ;
100 [label="score <= 2.5\nsquared_error = 4.4\nsamples = 10\nvalue = 10.9"] ;
94 -> 100 ;
101 [label="Negative_Sentiment <= 0.1\nsquared_error = 0.1\nsamples = 3\nvalue = 12.5"] ;
100 -> 101 ;
102 [label="squared_error = 0.0\nsamples = 1\nvalue = 12.7"] ;
101 -> 102 ;
103 [label="Positive_Sentiment <= 0.0\nsquared_error = 0.0\nsamples = 2\nvalue = 12.3"] ;
101 -> 103 ;
104 [label="squared_error = 0.0\nsamples = 1\nvalue = 12.1"] ;
103 -> 104 ;
105 [label="squared_error = -0.0\nsamples = 1\nvalue = 12.4"] ;
103 -> 105 ;
106 [label="Positive_Sentiment <= 0.1\nsquared_error = 4.8\nsamples = 7\nvalue = 10.3"] ;
100 -> 106 ;
107 [label="score <= 3.3\nsquared_error = 5.0\nsamples = 4\nvalue = 8.9"] ;
106 -> 107 ;
108 [label="Neutral_Sentiment <= 0.9\nsquared_error = 2.0\nsamples = 2\nvalue = 10.2"] ;
107 -> 108 ;
109 [label="squared_error = 0.0\nsamples = 1\nvalue = 9.4"] ;
108 -> 109 ;
110 [label="squared_error = -0.0\nsamples = 1\nvalue = 12.7"] ;
108 -> 110 ;
111 [label="num_comments <= 2.8\nsquared_error = 0.3\nsamples = 2\nvalue = 6.2"] ;
107 -> 111 ;
112 [label="squared_error = 0.0\nsamples = 1\nvalue = 6.7"] ;
111 -> 112 ;
113 [label="squared_error = 0.0\nsamples = 1\nvalue = 5.7"] ;
111 -> 113 ;
114 [label="score <= 5.3\nsquared_error = 0.5\nsamples = 3\nvalue = 11.7"] ;
106 -> 114 ;
115 [label="num_comments <= 2.7\nsquared_error = 0.0\nsamples = 2\nvalue = 11.0"] ;
114 -> 115 ;
116 [label="squared_error = 0.0\nsamples = 1\nvalue = 10.8"] ;
115 -> 116 ;
117 [label="squared_error = 0.0\nsamples = 1\nvalue = 11.1"] ;
115 -> 117 ;
118 [label="squared_error = 0.0\nsamples = 1\nvalue = 12.4"] ;
114 -> 118 ;
119 [label="num_comments <= 6.9\nsquared_error = 5.7\nsamples = 53\nvalue = 8.8"] ;
93 -> 119 ;
120 [label="num_comments <= 5.8\nsquared_error = 5.6\nsamples = 48\nvalue = 9.1"] ;
119 -> 120 ;
121 [label="Neutral_Sentiment <= 0.9\nsquared_error = 6.7\nsamples = 31\nvalue = 8.4"] ;
120 -> 121 ;
122 [label="num_comments <= 4.1\nsquared_error = 5.9\nsamples = 23\nvalue = 9.1"] ;
121 -> 122 ;
123 [label="Positive_Sentiment <= 0.1\nsquared_error = 1.2\nsamples = 6\nvalue = 7.2"] ;
122 -> 123 ;
124 [label="Negative_Sentiment <= 0.1\nsquared_error = 0.1\nsamples = 2\nvalue = 9.4"] ;
123 -> 124 ;
125 [label="squared_error = 0.0\nsamples = 1\nvalue = 9.7"] ;
124 -> 125 ;
126 [label="squared_error = 0.0\nsamples = 1\nvalue = 9.2"] ;
124 -> 126 ;
127 [label="score <= 4.7\nsquared_error = 0.0\nsamples = 4\nvalue = 6.6"] ;
123 -> 127 ;
128 [label="score <= 2.3\nsquared_error = 0.0\nsamples = 3\nvalue = 6.7"] ;
127 -> 128 ;
129 [label="squared_error = 0.0\nsamples = 1\nvalue = 6.9"] ;
128 -> 129 ;
130 [label="Neutral_Sentiment <= 0.8\nsquared_error = 0.0\nsamples = 2\nvalue = 6.7"] ;
128 -> 130 ;
131 [label="squared_error = 0.0\nsamples = 1\nvalue = 6.7"] ;
130 -> 131 ;
132 [label="squared_error = -0.0\nsamples = 1\nvalue = 6.6"] ;
130 -> 132 ;
133 [label="squared_error = 0.0\nsamples = 1\nvalue = 6.4"] ;
127 -> 133 ;
134 [label="num_comments <= 5.4\nsquared_error = 5.6\nsamples = 17\nvalue = 9.9"] ;
122 -> 134 ;
135 [label="Positive_Sentiment <= 0.1\nsquared_error = 2.8\nsamples = 14\nvalue = 10.6"] ;
134 -> 135 ;
136 [label="num_comments <= 4.4\nsquared_error = 0.9\nsamples = 9\nvalue = 9.7"] ;
135 -> 136 ;
137 [label="Compound_Sentiment <= 0.1\nsquared_error = 3.0\nsamples = 2\nvalue = 10.5"] ;
136 -> 137 ;
138 [label="squared_error = 0.0\nsamples = 1\nvalue = 13.0"] ;
137 -> 138 ;
139 [label="squared_error = -0.0\nsamples = 1\nvalue = 9.3"] ;
137 -> 139 ;
140 [label="num_comments <= 5.0\nsquared_error = 0.1\nsamples = 7\nvalue = 9.5"] ;
136 -> 140 ;
141 [label="num_comments <= 4.7\nsquared_error = 0.0\nsamples = 4\nvalue = 9.3"] ;
140 -> 141 ;
142 [label="score <= 2.4\nsquared_error = 0.0\nsamples = 3\nvalue = 9.4"] ;
141 -> 142 ;
143 [label="score <= 1.7\nsquared_error = 0.0\nsamples = 2\nvalue = 9.4"] ;
142 -> 143 ;
144 [label="squared_error = 0.0\nsamples = 1\nvalue = 9.4"] ;
143 -> 144 ;
145 [label="squared_error = 0.0\nsamples = 1\nvalue = 9.3"] ;
143 -> 145 ;
146 [label="squared_error = 0.0\nsamples = 1\nvalue = 9.4"] ;
142 -> 146 ;
147 [label="squared_error = 0.0\nsamples = 1\nvalue = 9.3"] ;
141 -> 147 ;
148 [label="num_comments <= 5.3\nsquared_error = 0.0\nsamples = 3\nvalue = 9.8"] ;
140 -> 148 ;
149 [label="score <= 4.2\nsquared_error = 0.0\nsamples = 2\nvalue = 9.9"] ;
148 -> 149 ;
150 [label="squared_error = 0.0\nsamples = 1\nvalue = 9.9"] ;
149 -> 150 ;
151 [label="squared_error = -0.0\nsamples = 1\nvalue = 10.0"] ;
149 -> 151 ;
152 [label="squared_error = -0.0\nsamples = 1\nvalue = 9.6"] ;
148 -> 152 ;
153 [label="Positive_Sentiment <= 0.1\nsquared_error = 3.0\nsamples = 5\nvalue = 11.8"] ;
135 -> 153 ;
154 [label="squared_error = 0.0\nsamples = 1\nvalue = 13.7"] ;
153 -> 154 ;
155 [label="Neutral_Sentiment <= 0.8\nsquared_error = 2.6\nsamples = 4\nvalue = 11.3"] ;
153 -> 155 ;
156 [label="Negative_Sentiment <= 0.0\nsquared_error = 0.1\nsamples = 2\nvalue = 13.1"] ;
155 -> 156 ;
157 [label="squared_error = 0.0\nsamples = 1\nvalue = 13.3"] ;
156 -> 157 ;
158 [label="squared_error = 0.0\nsamples = 1\nvalue = 12.7"] ;
156 -> 158 ;
159 [label="Neutral_Sentiment <= 0.8\nsquared_error = 0.2\nsamples = 2\nvalue = 9.9"] ;
155 -> 159 ;
160 [label="squared_error = 0.0\nsamples = 1\nvalue = 10.1"] ;
159 -> 160 ;
161 [label="squared_error = 0.0\nsamples = 1\nvalue = 9.2"] ;
159 -> 161 ;
162 [label="Neutral_Sentiment <= 0.8\nsquared_error = 4.7\nsamples = 3\nvalue = 6.2"] ;
134 -> 162 ;
163 [label="num_comments <= 5.7\nsquared_error = 0.1\nsamples = 2\nvalue = 5.0"] ;
162 -> 163 ;
164 [label="squared_error = 0.0\nsamples = 1\nvalue = 4.7"] ;
163 -> 164 ;
165 [label="squared_error = -0.0\nsamples = 1\nvalue = 5.5"] ;
163 -> 165 ;
166 [label="squared_error = 0.0\nsamples = 1\nvalue = 9.9"] ;
162 -> 166 ;
167 [label="num_comments <= 4.5\nsquared_error = 3.8\nsamples = 8\nvalue = 6.5"] ;
121 -> 167 ;
168 [label="Compound_Sentiment <= 0.1\nsquared_error = 0.0\nsamples = 2\nvalue = 9.9"] ;
167 -> 168 ;
169 [label="squared_error = 0.0\nsamples = 1\nvalue = 9.7"] ;
168 -> 169 ;
170 [label="squared_error = 0.0\nsamples = 1\nvalue = 10.0"] ;
168 -> 170 ;
171 [label="Positive_Sentiment <= 0.1\nsquared_error = 0.8\nsamples = 6\nvalue = 5.5"] ;
167 -> 171 ;
172 [label="score <= 2.2\nsquared_error = 0.5\nsamples = 5\nvalue = 5.8"] ;
171 -> 172 ;
173 [label="squared_error = 0.0\nsamples = 1\nvalue = 4.6"] ;
172 -> 173 ;
174 [label="num_comments <= 5.0\nsquared_error = 0.1\nsamples = 4\nvalue = 6.2"] ;
172 -> 174 ;
175 [label="squared_error = 0.0\nsamples = 1\nvalue = 6.7"] ;
174 -> 175 ;
176 [label="score <= 3.9\nsquared_error = 0.0\nsamples = 3\nvalue = 6.1"] ;
174 -> 176 ;
177 [label="num_comments <= 5.6\nsquared_error = 0.0\nsamples = 2\nvalue = 6.1"] ;
176 -> 177 ;
178 [label="squared_error = 0.0\nsamples = 1\nvalue = 6.1"] ;
177 -> 178 ;
179 [label="squared_error = 0.0\nsamples = 1\nvalue = 6.2"] ;
177 -> 179 ;
180 [label="squared_error = 0.0\nsamples = 1\nvalue = 5.9"] ;
176 -> 180 ;
181 [label="squared_error = 0.0\nsamples = 1\nvalue = 4.2"] ;
171 -> 181 ;
182 [label="Neutral_Sentiment <= 0.8\nsquared_error = 1.5\nsamples = 17\nvalue = 10.3"] ;
120 -> 182 ;
183 [label="Negative_Sentiment <= 0.1\nsquared_error = 0.1\nsamples = 3\nvalue = 9.3"] ;
182 -> 183 ;
184 [label="Negative_Sentiment <= 0.0\nsquared_error = 0.1\nsamples = 2\nvalue = 9.4"] ;
183 -> 184 ;
185 [label="squared_error = 0.0\nsamples = 1\nvalue = 9.8"] ;
184 -> 185 ;
186 [label="squared_error = 0.0\nsamples = 1\nvalue = 9.3"] ;
184 -> 186 ;
187 [label="squared_error = -0.0\nsamples = 1\nvalue = 8.7"] ;
183 -> 187 ;
188 [label="score <= 4.8\nsquared_error = 1.6\nsamples = 14\nvalue = 10.5"] ;
182 -> 188 ;
189 [label="Neutral_Sentiment <= 1.0\nsquared_error = 1.5\nsamples = 12\nvalue = 10.7"] ;
188 -> 189 ;
190 [label="num_comments <= 6.5\nsquared_error = 0.6\nsamples = 10\nvalue = 10.3"] ;
189 -> 190 ;
191 [label="Positive_Sentiment <= 0.1\nsquared_error = 0.3\nsamples = 7\nvalue = 9.9"] ;
190 -> 191 ;
192 [label="Compound_Sentiment <= 0.1\nsquared_error = 0.2\nsamples = 2\nvalue = 9.0"] ;
191 -> 192 ;
193 [label="squared_error = 0.0\nsamples = 1\nvalue = 9.4"] ;
192 -> 193 ;
194 [label="squared_error = 0.0\nsamples = 1\nvalue = 8.6"] ;
192 -> 194 ;
195 [label="Negative_Sentiment <= 0.1\nsquared_error = 0.1\nsamples = 5\nvalue = 10.1"] ;
191 -> 195 ;
196 [label="Compound_Sentiment <= 0.1\nsquared_error = 0.0\nsamples = 4\nvalue = 10.2"] ;
195 -> 196 ;
197 [label="squared_error = 0.0\nsamples = 1\nvalue = 10.8"] ;
196 -> 197 ;
198 [label="Neutral_Sentiment <= 0.9\nsquared_error = 0.0\nsamples = 3\nvalue = 10.1"] ;
196 -> 198 ;
199 [label="num_comments <= 6.1\nsquared_error = 0.0\nsamples = 2\nvalue = 10.1"] ;
198 -> 199 ;
200 [label="squared_error = 0.0\nsamples = 1\nvalue = 10.1"] ;
199 -> 200 ;
201 [label="squared_error = -0.0\nsamples = 1\nvalue = 10.1"] ;
199 -> 201 ;
202 [label="squared_error = -0.0\nsamples = 1\nvalue = 10.2"] ;
198 -> 202 ;
203 [label="squared_error = -0.0\nsamples = 1\nvalue = 9.4"] ;
195 -> 203 ;
204 [label="Neutral_Sentiment <= 0.9\nsquared_error = 0.1\nsamples = 3\nvalue = 11.2"] ;
190 -> 204 ;
205 [label="score <= 3.2\nsquared_error = 0.0\nsamples = 2\nvalue = 11.3"] ;
204 -> 205 ;
206 [label="squared_error = 0.0\nsamples = 1\nvalue = 11.2"] ;
205 -> 206 ;
207 [label="squared_error = 0.0\nsamples = 1\nvalue = 11.5"] ;
205 -> 207 ;
208 [label="squared_error = 0.0\nsamples = 1\nvalue = 10.8"] ;
204 -> 208 ;
209 [label="score <= 3.0\nsquared_error = 3.1\nsamples = 2\nvalue = 12.6"] ;
189 -> 209 ;
210 [label="squared_error = 0.0\nsamples = 1\nvalue = 10.1"] ;
209 -> 210 ;
211 [label="squared_error = -0.0\nsamples = 1\nvalue = 13.8"] ;
209 -> 211 ;
212 [label="score <= 5.0\nsquared_error = 0.3\nsamples = 2\nvalue = 9.3"] ;
188 -> 212 ;
213 [label="squared_error = 0.0\nsamples = 1\nvalue = 8.8"] ;
212 -> 213 ;
214 [label="squared_error = -0.0\nsamples = 1\nvalue = 9.9"] ;
212 -> 214 ;
215 [label="Compound_Sentiment <= 0.2\nsquared_error = 4.2\nsamples = 5\nvalue = 7.4"] ;
119 -> 215 ;
216 [label="Compound_Sentiment <= 0.1\nsquared_error = 0.4\nsamples = 3\nvalue = 9.2"] ;
215 -> 216 ;
217 [label="Compound_Sentiment <= 0.0\nsquared_error = 0.1\nsamples = 2\nvalue = 9.0"] ;
216 -> 217 ;
218 [label="squared_error = 0.0\nsamples = 1\nvalue = 8.8"] ;
217 -> 218 ;
219 [label="squared_error = -0.0\nsamples = 1\nvalue = 9.4"] ;
217 -> 219 ;
220 [label="squared_error = -0.0\nsamples = 1\nvalue = 10.7"] ;
216 -> 220 ;
221 [label="Neutral_Sentiment <= 0.8\nsquared_error = 0.0\nsamples = 2\nvalue = 5.2"] ;
215 -> 221 ;
222 [label="squared_error = 0.0\nsamples = 1\nvalue = 5.3"] ;
221 -> 222 ;
223 [label="squared_error = -0.0\nsamples = 1\nvalue = 5.2"] ;
221 -> 223 ;
224 [label="Neutral_Sentiment <= 0.9\nsquared_error = 1.6\nsamples = 26\nvalue = 10.3"] ;
92 -> 224 ;
225 [label="Compound_Sentiment <= 0.2\nsquared_error = 0.6\nsamples = 19\nvalue = 10.8"] ;
224 -> 225 ;
226 [label="num_comments <= 7.9\nsquared_error = 0.5\nsamples = 17\nvalue = 10.9"] ;
225 -> 226 ;
227 [label="Positive_Sentiment <= 0.2\nsquared_error = 0.5\nsamples = 10\nvalue = 11.1"] ;
226 -> 227 ;
228 [label="score <= 5.2\nsquared_error = 0.4\nsamples = 9\nvalue = 11.0"] ;
227 -> 228 ;
229 [label="Compound_Sentiment <= 0.1\nsquared_error = 0.2\nsamples = 7\nvalue = 10.9"] ;
228 -> 229 ;
230 [label="Neutral_Sentiment <= 0.8\nsquared_error = 0.0\nsamples = 3\nvalue = 11.2"] ;
229 -> 230 ;
231 [label="squared_error = 0.0\nsamples = 1\nvalue = 11.5"] ;
230 -> 231 ;
232 [label="Positive_Sentiment <= 0.1\nsquared_error = 0.0\nsamples = 2\nvalue = 11.1"] ;
230 -> 232 ;
233 [label="squared_error = 0.0\nsamples = 1\nvalue = 11.0"] ;
232 -> 233 ;
234 [label="squared_error = -0.0\nsamples = 1\nvalue = 11.1"] ;
232 -> 234 ;
235 [label="score <= 3.0\nsquared_error = 0.2\nsamples = 4\nvalue = 10.6"] ;
229 -> 235 ;
236 [label="Positive_Sentiment <= 0.1\nsquared_error = 0.0\nsamples = 2\nvalue = 11.2"] ;
235 -> 236 ;
237 [label="squared_error = 0.0\nsamples = 1\nvalue = 11.0"] ;
236 -> 237 ;
238 [label="squared_error = 0.0\nsamples = 1\nvalue = 11.4"] ;
236 -> 238 ;
239 [label="Compound_Sentiment <= 0.1\nsquared_error = 0.0\nsamples = 2\nvalue = 10.3"] ;
235 -> 239 ;
240 [label="squared_error = 0.0\nsamples = 1\nvalue = 10.2"] ;
239 -> 240 ;
241 [label="squared_error = 0.0\nsamples = 1\nvalue = 10.3"] ;
239 -> 241 ;
242 [label="num_comments <= 7.4\nsquared_error = 0.1\nsamples = 2\nvalue = 12.0"] ;
228 -> 242 ;
243 [label="squared_error = 0.0\nsamples = 1\nvalue = 12.4"] ;
242 -> 243 ;
244 [label="squared_error = 0.0\nsamples = 1\nvalue = 11.6"] ;
242 -> 244 ;
245 [label="squared_error = 0.0\nsamples = 1\nvalue = 12.5"] ;
227 -> 245 ;
246 [label="score <= 4.2\nsquared_error = 0.2\nsamples = 7\nvalue = 10.4"] ;
226 -> 246 ;
247 [label="Positive_Sentiment <= 0.1\nsquared_error = 0.0\nsamples = 3\nvalue = 10.0"] ;
246 -> 247 ;
248 [label="Negative_Sentiment <= 0.1\nsquared_error = 0.0\nsamples = 2\nvalue = 10.1"] ;
247 -> 248 ;
249 [label="squared_error = 0.0\nsamples = 1\nvalue = 10.1"] ;
248 -> 249 ;
250 [label="squared_error = 0.0\nsamples = 1\nvalue = 10.1"] ;
248 -> 250 ;
251 [label="squared_error = 0.0\nsamples = 1\nvalue = 9.8"] ;
247 -> 251 ;
252 [label="Positive_Sentiment <= 0.1\nsquared_error = 0.1\nsamples = 4\nvalue = 10.7"] ;
246 -> 252 ;
253 [label="Positive_Sentiment <= 0.1\nsquared_error = 0.1\nsamples = 3\nvalue = 10.9"] ;
252 -> 253 ;
254 [label="Negative_Sentiment <= 0.1\nsquared_error = 0.1\nsamples = 2\nvalue = 10.7"] ;
253 -> 254 ;
255 [label="squared_error = 0.0\nsamples = 1\nvalue = 10.5"] ;
254 -> 255 ;
256 [label="squared_error = 0.0\nsamples = 1\nvalue = 11.0"] ;
254 -> 256 ;
257 [label="squared_error = -0.0\nsamples = 1\nvalue = 11.1"] ;
253 -> 257 ;
258 [label="squared_error = -0.0\nsamples = 1\nvalue = 10.2"] ;
252 -> 258 ;
259 [label="Positive_Sentiment <= 0.2\nsquared_error = 0.0\nsamples = 2\nvalue = 9.5"] ;
225 -> 259 ;
260 [label="squared_error = 0.0\nsamples = 1\nvalue = 9.4"] ;
259 -> 260 ;
261 [label="squared_error = 0.0\nsamples = 1\nvalue = 9.6"] ;
259 -> 261 ;
262 [label="num_comments <= 7.9\nsquared_error = 2.6\nsamples = 7\nvalue = 9.3"] ;
224 -> 262 ;
263 [label="Neutral_Sentiment <= 1.0\nsquared_error = 0.8\nsamples = 4\nvalue = 10.2"] ;
262 -> 263 ;
264 [label="Compound_Sentiment <= 0.1\nsquared_error = 0.0\nsamples = 2\nvalue = 9.4"] ;
263 -> 264 ;
265 [label="squared_error = 0.0\nsamples = 1\nvalue = 9.5"] ;
264 -> 265 ;
266 [label="squared_error = -0.0\nsamples = 1\nvalue = 9.3"] ;
264 -> 266 ;
267 [label="num_comments <= 7.5\nsquared_error = 0.1\nsamples = 2\nvalue = 11.1"] ;
263 -> 267 ;
268 [label="squared_error = 0.0\nsamples = 1\nvalue = 11.4"] ;
267 -> 268 ;
269 [label="squared_error = 0.0\nsamples = 1\nvalue = 10.8"] ;
267 -> 269 ;
270 [label="Positive_Sentiment <= 0.0\nsquared_error = 2.8\nsamples = 3\nvalue = 8.8"] ;
262 -> 270 ;
271 [label="squared_error = 0.0\nsamples = 1\nvalue = 6.4"] ;
270 -> 271 ;
272 [label="Compound_Sentiment <= 0.0\nsquared_error = 0.0\nsamples = 2\nvalue = 9.9"] ;
270 -> 272 ;
273 [label="squared_error = 0.0\nsamples = 1\nvalue = 10.1"] ;
272 -> 273 ;
274 [label="squared_error = 0.0\nsamples = 1\nvalue = 9.7"] ;
272 -> 274 ;
275 [label="Neutral_Sentiment <= 0.7\nsquared_error = 0.0\nsamples = 5\nvalue = 12.5"] ;
91 -> 275 ;
276 [label="score <= 4.5\nsquared_error = 0.0\nsamples = 2\nvalue = 12.7"] ;
275 -> 276 ;
277 [label="squared_error = 0.0\nsamples = 1\nvalue = 12.8"] ;
276 -> 277 ;
278 [label="squared_error = 0.0\nsamples = 1\nvalue = 12.7"] ;
276 -> 278 ;
279 [label="Neutral_Sentiment <= 0.7\nsquared_error = 0.0\nsamples = 3\nvalue = 12.3"] ;
275 -> 279 ;
280 [label="Positive_Sentiment <= 0.3\nsquared_error = 0.0\nsamples = 2\nvalue = 12.2"] ;
279 -> 280 ;
281 [label="squared_error = 0.0\nsamples = 1\nvalue = 12.2"] ;
280 -> 281 ;
282 [label="squared_error = 0.0\nsamples = 1\nvalue = 12.2"] ;
280 -> 282 ;
283 [label="squared_error = 0.0\nsamples = 1\nvalue = 12.4"] ;
279 -> 283 ;
284 [label="Positive_Sentiment <= 0.2\nsquared_error = 6.6\nsamples = 41\nvalue = 7.5"] ;
90 -> 284 ;
285 [label="score <= 8.3\nsquared_error = 5.3\nsamples = 31\nvalue = 6.9"] ;
284 -> 285 ;
286 [label="Neutral_Sentiment <= 0.9\nsquared_error = 4.8\nsamples = 30\nvalue = 6.7"] ;
285 -> 286 ;
287 [label="score <= 7.7\nsquared_error = 8.0\nsamples = 10\nvalue = 7.9"] ;
286 -> 287 ;
288 [label="num_comments <= 4.5\nsquared_error = 3.5\nsamples = 7\nvalue = 9.7"] ;
287 -> 288 ;
289 [label="squared_error = 0.0\nsamples = 1\nvalue = 4.9"] ;
288 -> 289 ;
290 [label="Neutral_Sentiment <= 0.8\nsquared_error = 0.6\nsamples = 6\nvalue = 10.3"] ;
288 -> 290 ;
291 [label="Negative_Sentiment <= 0.1\nsquared_error = 0.1\nsamples = 4\nvalue = 10.8"] ;
290 -> 291 ;
292 [label="num_comments <= 7.6\nsquared_error = 0.0\nsamples = 3\nvalue = 10.9"] ;
291 -> 292 ;
293 [label="Positive_Sentiment <= 0.1\nsquared_error = 0.0\nsamples = 2\nvalue = 10.9"] ;
292 -> 293 ;
294 [label="squared_error = 0.0\nsamples = 1\nvalue = 10.9"] ;
293 -> 294 ;
295 [label="squared_error = -0.0\nsamples = 1\nvalue = 10.8"] ;
293 -> 295 ;
296 [label="squared_error = 0.0\nsamples = 1\nvalue = 11.0"] ;
292 -> 296 ;
297 [label="squared_error = 0.0\nsamples = 1\nvalue = 10.4"] ;
291 -> 297 ;
298 [label="score <= 6.8\nsquared_error = 0.1\nsamples = 2\nvalue = 9.1"] ;
290 -> 298 ;
299 [label="squared_error = 0.0\nsamples = 1\nvalue = 9.4"] ;
298 -> 299 ;
300 [label="squared_error = 0.0\nsamples = 1\nvalue = 8.7"] ;
298 -> 300 ;
301 [label="Neutral_Sentiment <= 0.8\nsquared_error = 0.1\nsamples = 3\nvalue = 4.7"] ;
287 -> 301 ;
302 [label="Negative_Sentiment <= 0.1\nsquared_error = 0.0\nsamples = 2\nvalue = 4.9"] ;
301 -> 302 ;
303 [label="squared_error = 0.0\nsamples = 1\nvalue = 4.9"] ;
302 -> 303 ;
304 [label="squared_error = 0.0\nsamples = 1\nvalue = 4.8"] ;
302 -> 304 ;
305 [label="squared_error = 0.0\nsamples = 1\nvalue = 4.4"] ;
301 -> 305 ;
306 [label="Compound_Sentiment <= -0.0\nsquared_error = 2.5\nsamples = 20\nvalue = 6.1"] ;
286 -> 306 ;
307 [label="Positive_Sentiment <= 0.0\nsquared_error = 2.7\nsamples = 4\nvalue = 8.5"] ;
306 -> 307 ;
308 [label="Compound_Sentiment <= -0.0\nsquared_error = 0.8\nsamples = 3\nvalue = 9.2"] ;
307 -> 308 ;
309 [label="Negative_Sentiment <= 0.1\nsquared_error = 0.1\nsamples = 2\nvalue = 8.7"] ;
308 -> 309 ;
310 [label="squared_error = 0.0\nsamples = 1\nvalue = 9.2"] ;
309 -> 310 ;
311 [label="squared_error = -0.0\nsamples = 1\nvalue = 8.5"] ;
309 -> 311 ;
312 [label="squared_error = -0.0\nsamples = 1\nvalue = 10.7"] ;
308 -> 312 ;
313 [label="squared_error = 0.0\nsamples = 1\nvalue = 5.7"] ;
307 -> 313 ;
314 [label="score <= 6.1\nsquared_error = 1.3\nsamples = 16\nvalue = 5.7"] ;
306 -> 314 ;
315 [label="Positive_Sentiment <= 0.0\nsquared_error = 2.4\nsamples = 5\nvalue = 6.4"] ;
314 -> 315 ;
316 [label="num_comments <= 5.5\nsquared_error = 4.0\nsamples = 3\nvalue = 7.6"] ;
315 -> 316 ;
317 [label="squared_error = 0.0\nsamples = 1\nvalue = 5.8"] ;
316 -> 317 ;
318 [label="squared_error = 3.5\nsamples = 2\nvalue = 8.5"] ;
316 -> 318 ;
319 [label="Positive_Sentiment <= 0.1\nsquared_error = 0.0\nsamples = 2\nvalue = 5.6"] ;
315 -> 319 ;
320 [label="squared_error = 0.0\nsamples = 1\nvalue = 5.7"] ;
319 -> 320 ;
321 [label="squared_error = 0.0\nsamples = 1\nvalue = 5.5"] ;
319 -> 321 ;
322 [label="Compound_Sentiment <= 0.1\nsquared_error = 0.6\nsamples = 11\nvalue = 5.5"] ;
314 -> 322 ;
323 [label="score <= 6.9\nsquared_error = 0.2\nsamples = 7\nvalue = 5.2"] ;
322 -> 323 ;
324 [label="Negative_Sentiment <= 0.0\nsquared_error = 0.0\nsamples = 2\nvalue = 4.8"] ;
323 -> 324 ;
325 [label="squared_error = 0.0\nsamples = 1\nvalue = 4.5"] ;
324 -> 325 ;
326 [label="squared_error = 0.0\nsamples = 1\nvalue = 4.9"] ;
324 -> 326 ;
327 [label="num_comments <= 5.8\nsquared_error = 0.1\nsamples = 5\nvalue = 5.4"] ;
323 -> 327 ;
328 [label="num_comments <= 4.8\nsquared_error = 0.0\nsamples = 2\nvalue = 6.0"] ;
327 -> 328 ;
329 [label="squared_error = 0.0\nsamples = 1\nvalue = 6.1"] ;
328 -> 329 ;
330 [label="squared_error = 0.0\nsamples = 1\nvalue = 5.9"] ;
328 -> 330 ;
331 [label="num_comments <= 6.8\nsquared_error = 0.0\nsamples = 3\nvalue = 5.2"] ;
327 -> 331 ;
332 [label="squared_error = 0.0\nsamples = 1\nvalue = 4.9"] ;
331 -> 332 ;
333 [label="Negative_Sentiment <= 0.0\nsquared_error = 0.0\nsamples = 2\nvalue = 5.3"] ;
331 -> 333 ;
334 [label="squared_error = 0.0\nsamples = 1\nvalue = 5.4"] ;
333 -> 334 ;
335 [label="squared_error = 0.0\nsamples = 1\nvalue = 5.3"] ;
333 -> 335 ;
336 [label="Negative_Sentiment <= 0.0\nsquared_error = 0.9\nsamples = 4\nvalue = 6.0"] ;
322 -> 336 ;
337 [label="score <= 7.1\nsquared_error = 0.1\nsamples = 3\nvalue = 5.6"] ;
336 -> 337 ;
338 [label="Neutral_Sentiment <= 0.9\nsquared_error = 0.0\nsamples = 2\nvalue = 5.7"] ;
337 -> 338 ;
339 [label="squared_error = 0.0\nsamples = 1\nvalue = 5.7"] ;
338 -> 339 ;
340 [label="squared_error = -0.0\nsamples = 1\nvalue = 5.8"] ;
338 -> 340 ;
341 [label="squared_error = 0.0\nsamples = 1\nvalue = 4.8"] ;
337 -> 341 ;
342 [label="squared_error = 0.0\nsamples = 1\nvalue = 8.2"] ;
336 -> 342 ;
343 [label="squared_error = -0.0\nsamples = 1\nvalue = 10.3"] ;
285 -> 343 ;
344 [label="Compound_Sentiment <= 0.3\nsquared_error = 5.2\nsamples = 10\nvalue = 9.7"] ;
284 -> 344 ;
345 [label="Compound_Sentiment <= 0.2\nsquared_error = 1.5\nsamples = 7\nvalue = 10.6"] ;
344 -> 345 ;
346 [label="Negative_Sentiment <= 0.0\nsquared_error = 0.3\nsamples = 5\nvalue = 10.1"] ;
345 -> 346 ;
347 [label="num_comments <= 6.8\nsquared_error = 0.0\nsamples = 2\nvalue = 10.6"] ;
346 -> 347 ;
348 [label="squared_error = 0.0\nsamples = 1\nvalue = 10.7"] ;
347 -> 348 ;
349 [label="squared_error = -0.0\nsamples = 1\nvalue = 10.5"] ;
347 -> 349 ;
350 [label="Negative_Sentiment <= 0.1\nsquared_error = 0.1\nsamples = 3\nvalue = 9.5"] ;
346 -> 350 ;
351 [label="squared_error = 0.0\nsamples = 1\nvalue = 9.2"] ;
350 -> 351 ;
352 [label="Neutral_Sentiment <= 0.7\nsquared_error = 0.0\nsamples = 2\nvalue = 9.7"] ;
350 -> 352 ;
353 [label="squared_error = 0.0\nsamples = 1\nvalue = 9.8"] ;
352 -> 353 ;
354 [label="squared_error = -0.0\nsamples = 1\nvalue = 9.7"] ;
352 -> 354 ;
355 [label="Compound_Sentiment <= 0.3\nsquared_error = 0.0\nsamples = 2\nvalue = 12.9"] ;
345 -> 355 ;
356 [label="squared_error = 0.0\nsamples = 1\nvalue = 12.8"] ;
355 -> 356 ;
357 [label="squared_error = 0.0\nsamples = 1\nvalue = 13.0"] ;
355 -> 357 ;
358 [label="Positive_Sentiment <= 0.2\nsquared_error = 5.3\nsamples = 3\nvalue = 6.5"] ;
344 -> 358 ;
359 [label="squared_error = 0.0\nsamples = 1\nvalue = 9.6"] ;
358 -> 359 ;
360 [label="score <= 6.4\nsquared_error = 0.8\nsamples = 2\nvalue = 4.9"] ;
358 -> 360 ;
361 [label="squared_error = 0.0\nsamples = 1\nvalue = 5.8"] ;
360 -> 361 ;
362 [label="squared_error = 0.0\nsamples = 1\nvalue = 4.0"] ;
360 -> 362 ;
363 [label="Compound_Sentiment <= 0.3\nsquared_error = 4.0\nsamples = 182\nvalue = 9.9"] ;
89 -> 363 ;
364 [label="Compound_Sentiment <= -0.5\nsquared_error = 3.6\nsamples = 176\nvalue = 10.0"] ;
363 -> 364 ;
365 [label="squared_error = 0.0\nsamples = 1\nvalue = 5.6"] ;
364 -> 365 ;
366 [label="num_comments <= 24.0\nsquared_error = 3.5\nsamples = 175\nvalue = 10.0"] ;
364 -> 366 ;
367 [label="Positive_Sentiment <= 0.1\nsquared_error = 3.4\nsamples = 172\nvalue = 9.9"] ;
366 -> 367 ;
368 [label="Positive_Sentiment <= 0.1\nsquared_error = 3.1\nsamples = 104\nvalue = 9.7"] ;
367 -> 368 ;
369 [label="Compound_Sentiment <= -0.0\nsquared_error = 2.8\nsamples = 103\nvalue = 9.8"] ;
368 -> 369 ;
370 [label="Neutral_Sentiment <= 0.9\nsquared_error = 0.8\nsamples = 35\nvalue = 10.3"] ;
369 -> 370 ;
371 [label="Negative_Sentiment <= 0.1\nsquared_error = 0.7\nsamples = 17\nvalue = 9.9"] ;
370 -> 371 ;
372 [label="Negative_Sentiment <= 0.1\nsquared_error = 0.6\nsamples = 10\nvalue = 10.1"] ;
371 -> 372 ;
373 [label="Compound_Sentiment <= -0.1\nsquared_error = 0.3\nsamples = 5\nvalue = 9.8"] ;
372 -> 373 ;
374 [label="squared_error = 0.0\nsamples = 1\nvalue = 10.5"] ;
373 -> 374 ;
375 [label="Neutral_Sentiment <= 0.9\nsquared_error = 0.1\nsamples = 4\nvalue = 9.4"] ;
373 -> 375 ;
376 [label="Negative_Sentiment <= 0.1\nsquared_error = 0.0\nsamples = 3\nvalue = 9.3"] ;
375 -> 376 ;
377 [label="squared_error = 0.0\nsamples = 1\nvalue = 8.9"] ;
376 -> 377 ;
378 [label="Compound_Sentiment <= -0.0\nsquared_error = 0.0\nsamples = 2\nvalue = 9.4"] ;
376 -> 378 ;
379 [label="squared_error = 0.0\nsamples = 1\nvalue = 9.4"] ;
378 -> 379 ;
380 [label="squared_error = 0.0\nsamples = 1\nvalue = 9.4"] ;
378 -> 380 ;
381 [label="squared_error = -0.0\nsamples = 1\nvalue = 10.0"] ;
375 -> 381 ;
382 [label="Positive_Sentiment <= 0.1\nsquared_error = 0.6\nsamples = 5\nvalue = 10.8"] ;
372 -> 382 ;
383 [label="Compound_Sentiment <= -0.1\nsquared_error = 0.1\nsamples = 2\nvalue = 11.5"] ;
382 -> 383 ;
384 [label="squared_error = 0.0\nsamples = 1\nvalue = 11.2"] ;
383 -> 384 ;
385 [label="squared_error = -0.0\nsamples = 1\nvalue = 11.8"] ;
383 -> 385 ;
386 [label="Compound_Sentiment <= -0.0\nsquared_error = 0.3\nsamples = 3\nvalue = 10.4"] ;
382 -> 386 ;
387 [label="Compound_Sentiment <= -0.1\nsquared_error = 0.1\nsamples = 2\nvalue = 10.0"] ;
386 -> 387 ;
388 [label="squared_error = 0.0\nsamples = 1\nvalue = 9.7"] ;
387 -> 388 ;
389 [label="squared_error = 0.0\nsamples = 1\nvalue = 10.2"] ;
387 -> 389 ;
390 [label="squared_error = -0.0\nsamples = 1\nvalue = 11.1"] ;
386 -> 390 ;
391 [label="Negative_Sentiment <= 0.1\nsquared_error = 0.5\nsamples = 7\nvalue = 9.4"] ;
371 -> 391 ;
392 [label="Negative_Sentiment <= 0.1\nsquared_error = 0.9\nsamples = 2\nvalue = 8.5"] ;
391 -> 392 ;
393 [label="squared_error = 0.0\nsamples = 1\nvalue = 9.4"] ;
392 -> 393 ;
394 [label="squared_error = 0.0\nsamples = 1\nvalue = 7.6"] ;
392 -> 394 ;
395 [label="num_comments <= 15.7\nsquared_error = 0.2\nsamples = 5\nvalue = 9.7"] ;
391 -> 395 ;
396 [label="num_comments <= 14.8\nsquared_error = 0.0\nsamples = 3\nvalue = 9.5"] ;
395 -> 396 ;
397 [label="num_comments <= 11.7\nsquared_error = 0.0\nsamples = 2\nvalue = 9.3"] ;
396 -> 397 ;
398 [label="squared_error = 0.0\nsamples = 1\nvalue = 9.3"] ;
397 -> 398 ;
399 [label="squared_error = -0.0\nsamples = 1\nvalue = 9.2"] ;
397 -> 399 ;
400 [label="squared_error = 0.0\nsamples = 1\nvalue = 9.6"] ;
396 -> 400 ;
401 [label="score <= 5.3\nsquared_error = 0.0\nsamples = 2\nvalue = 10.4"] ;
395 -> 401 ;
402 [label="squared_error = 0.0\nsamples = 1\nvalue = 10.4"] ;
401 -> 402 ;
403 [label="squared_error = 0.0\nsamples = 1\nvalue = 10.3"] ;
401 -> 403 ;
404 [label="Compound_Sentiment <= -0.0\nsquared_error = 0.7\nsamples = 18\nvalue = 10.6"] ;
370 -> 404 ;
405 [label="Compound_Sentiment <= -0.1\nsquared_error = 0.5\nsamples = 15\nvalue = 10.5"] ;
404 -> 405 ;
406 [label="Compound_Sentiment <= -0.1\nsquared_error = 0.3\nsamples = 2\nvalue = 9.1"] ;
405 -> 406 ;
407 [label="squared_error = 0.0\nsamples = 1\nvalue = 9.7"] ;
406 -> 407 ;
408 [label="squared_error = 0.0\nsamples = 1\nvalue = 8.6"] ;
406 -> 408 ;
409 [label="score <= 4.3\nsquared_error = 0.3\nsamples = 13\nvalue = 10.6"] ;
405 -> 409 ;
410 [label="Compound_Sentiment <= -0.1\nsquared_error = 0.2\nsamples = 4\nvalue = 10.9"] ;
409 -> 410 ;
411 [label="squared_error = 0.0\nsamples = 1\nvalue = 12.3"] ;
410 -> 411 ;
412 [label="num_comments <= 14.0\nsquared_error = 0.0\nsamples = 3\nvalue = 10.8"] ;
410 -> 412 ;
413 [label="Positive_Sentiment <= 0.0\nsquared_error = 0.0\nsamples = 2\nvalue = 10.8"] ;
412 -> 413 ;
414 [label="squared_error = -0.0\nsamples = 1\nvalue = 10.8"] ;
413 -> 414 ;
415 [label="squared_error = -0.0\nsamples = 1\nvalue = 10.7"] ;
413 -> 415 ;
416 [label="squared_error = 0.0\nsamples = 1\nvalue = 10.5"] ;
412 -> 416 ;
417 [label="num_comments <= 10.4\nsquared_error = 0.3\nsamples = 9\nvalue = 10.4"] ;
409 -> 417 ;
418 [label="squared_error = 0.0\nsamples = 1\nvalue = 8.4"] ;
417 -> 418 ;
419 [label="score <= 8.1\nsquared_error = 0.1\nsamples = 8\nvalue = 10.5"] ;
417 -> 419 ;
420 [label="num_comments <= 14.7\nsquared_error = 0.0\nsamples = 7\nvalue = 10.6"] ;
419 -> 420 ;
421 [label="Negative_Sentiment <= 0.0\nsquared_error = 0.0\nsamples = 5\nvalue = 10.5"] ;
420 -> 421 ;
422 [label="squared_error = 0.0\nsamples = 1\nvalue = 10.3"] ;
421 -> 422 ;
423 [label="num_comments <= 12.2\nsquared_error = 0.0\nsamples = 4\nvalue = 10.6"] ;
421 -> 423 ;
424 [label="squared_error = 0.0\nsamples = 1\nvalue = 10.7"] ;
423 -> 424 ;
425 [label="Compound_Sentiment <= -0.1\nsquared_error = 0.0\nsamples = 3\nvalue = 10.5"] ;
423 -> 425 ;
426 [label="squared_error = 0.0\nsamples = 1\nvalue = 10.5"] ;
425 -> 426 ;
427 [label="score <= 7.0\nsquared_error = 0.0\nsamples = 2\nvalue = 10.6"] ;
425 -> 427 ;
428 [label="squared_error = 0.0\nsamples = 1\nvalue = 10.6"] ;
427 -> 428 ;
429 [label="squared_error = -0.0\nsamples = 1\nvalue = 10.5"] ;
427 -> 429 ;
430 [label="Neutral_Sentiment <= 0.9\nsquared_error = 0.0\nsamples = 2\nvalue = 10.9"] ;
420 -> 430 ;
431 [label="squared_error = 0.0\nsamples = 1\nvalue = 10.8"] ;
430 -> 431 ;
432 [label="squared_error = -0.0\nsamples = 1\nvalue = 10.9"] ;
430 -> 432 ;
433 [label="squared_error = -0.0\nsamples = 1\nvalue = 9.4"] ;
419 -> 433 ;
434 [label="Neutral_Sentiment <= 0.9\nsquared_error = 1.0\nsamples = 3\nvalue = 11.9"] ;
404 -> 434 ;
435 [label="squared_error = 0.0\nsamples = 1\nvalue = 10.5"] ;
434 -> 435 ;
436 [label="Negative_Sentiment <= 0.0\nsquared_error = 0.0\nsamples = 2\nvalue = 12.6"] ;
434 -> 436 ;
437 [label="squared_error = 0.0\nsamples = 1\nvalue = 12.4"] ;
436 -> 437 ;
438 [label="squared_error = 0.0\nsamples = 1\nvalue = 12.7"] ;
436 -> 438 ;
439 [label="num_comments <= 10.0\nsquared_error = 3.6\nsamples = 68\nvalue = 9.5"] ;
369 -> 439 ;
440 [label="num_comments <= 8.6\nsquared_error = 3.8\nsamples = 15\nvalue = 10.5"] ;
439 -> 440 ;
441 [label="Positive_Sentiment <= 0.0\nsquared_error = 10.8\nsamples = 3\nvalue = 8.9"] ;
440 -> 441 ;
442 [label="squared_error = 0.0\nsamples = 1\nvalue = 6.5"] ;
441 -> 442 ;
443 [label="score <= 3.5\nsquared_error = 10.1\nsamples = 2\nvalue = 11.3"] ;
441 -> 443 ;
444 [label="squared_error = 0.0\nsamples = 1\nvalue = 8.1"] ;
443 -> 444 ;
445 [label="squared_error = 0.0\nsamples = 1\nvalue = 14.4"] ;
443 -> 445 ;
446 [label="Compound_Sentiment <= 0.1\nsquared_error = 1.1\nsamples = 12\nvalue = 11.0"] ;
440 -> 446 ;
447 [label="num_comments <= 9.2\nsquared_error = 1.0\nsamples = 6\nvalue = 11.6"] ;
446 -> 447 ;
448 [label="squared_error = 0.0\nsamples = 1\nvalue = 13.2"] ;
447 -> 448 ;
449 [label="Negative_Sentiment <= 0.0\nsquared_error = 0.3\nsamples = 5\nvalue = 11.1"] ;
447 -> 449 ;
450 [label="num_comments <= 9.8\nsquared_error = 0.0\nsamples = 2\nvalue = 10.6"] ;
449 -> 450 ;
451 [label="squared_error = 0.0\nsamples = 1\nvalue = 10.6"] ;
450 -> 451 ;
452 [label="squared_error = -0.0\nsamples = 1\nvalue = 10.6"] ;
450 -> 452 ;
453 [label="num_comments <= 9.4\nsquared_error = 0.0\nsamples = 3\nvalue = 11.6"] ;
449 -> 453 ;
454 [label="squared_error = 0.0\nsamples = 1\nvalue = 11.9"] ;
453 -> 454 ;
455 [label="num_comments <= 9.5\nsquared_error = 0.0\nsamples = 2\nvalue = 11.5"] ;
453 -> 455 ;
456 [label="squared_error = 0.0\nsamples = 1\nvalue = 11.4"] ;
455 -> 456 ;
457 [label="squared_error = 0.0\nsamples = 1\nvalue = 11.6"] ;
455 -> 457 ;
458 [label="Neutral_Sentiment <= 0.9\nsquared_error = 0.4\nsamples = 6\nvalue = 10.3"] ;
446 -> 458 ;
459 [label="num_comments <= 9.0\nsquared_error = 0.1\nsamples = 3\nvalue = 9.8"] ;
458 -> 459 ;
460 [label="squared_error = 0.0\nsamples = 1\nvalue = 10.2"] ;
459 -> 460 ;
461 [label="Neutral_Sentiment <= 0.9\nsquared_error = 0.0\nsamples = 2\nvalue = 9.6"] ;
459 -> 461 ;
462 [label="squared_error = 0.0\nsamples = 1\nvalue = 9.6"] ;
461 -> 462 ;
463 [label="squared_error = 0.0\nsamples = 1\nvalue = 9.7"] ;
461 -> 463 ;
464 [label="Positive_Sentiment <= 0.1\nsquared_error = 0.2\nsamples = 3\nvalue = 10.8"] ;
458 -> 464 ;
465 [label="Compound_Sentiment <= 0.1\nsquared_error = 0.0\nsamples = 2\nvalue = 11.0"] ;
464 -> 465 ;
466 [label="squared_error = 0.0\nsamples = 1\nvalue = 11.1"] ;
465 -> 466 ;
467 [label="squared_error = 0.0\nsamples = 1\nvalue = 10.8"] ;
465 -> 467 ;
468 [label="squared_error = 0.0\nsamples = 1\nvalue = 10.1"] ;
464 -> 468 ;
469 [label="num_comments <= 10.0\nsquared_error = 3.3\nsamples = 53\nvalue = 9.2"] ;
439 -> 469 ;
470 [label="Positive_Sentiment <= 0.0\nsquared_error = 2.5\nsamples = 5\nvalue = 7.8"] ;
469 -> 470 ;
471 [label="score <= 3.5\nsquared_error = 0.3\nsamples = 2\nvalue = 5.9"] ;
470 -> 471 ;
472 [label="squared_error = 0.0\nsamples = 1\nvalue = 6.5"] ;
471 -> 472 ;
473 [label="squared_error = -0.0\nsamples = 1\nvalue = 5.4"] ;
471 -> 473 ;
474 [label="Neutral_Sentiment <= 1.0\nsquared_error = 0.5\nsamples = 3\nvalue = 8.9"] ;
470 -> 474 ;
475 [label="Neutral_Sentiment <= 0.9\nsquared_error = 0.1\nsamples = 2\nvalue = 8.2"] ;
474 -> 475 ;
476 [label="squared_error = 0.0\nsamples = 1\nvalue = 7.9"] ;
475 -> 476 ;
477 [label="squared_error = 0.0\nsamples = 1\nvalue = 8.6"] ;
475 -> 477 ;
478 [label="squared_error = 0.0\nsamples = 1\nvalue = 9.5"] ;
474 -> 478 ;
479 [label="num_comments <= 10.6\nsquared_error = 3.1\nsamples = 48\nvalue = 9.4"] ;
469 -> 479 ;
480 [label="Negative_Sentiment <= 0.0\nsquared_error = 1.5\nsamples = 4\nvalue = 11.9"] ;
479 -> 480 ;
481 [label="squared_error = 0.0\nsamples = 1\nvalue = 13.8"] ;
480 -> 481 ;
482 [label="score <= 3.1\nsquared_error = 0.2\nsamples = 3\nvalue = 11.2"] ;
480 -> 482 ;
483 [label="squared_error = 0.0\nsamples = 1\nvalue = 10.3"] ;
482 -> 483 ;
484 [label="score <= 6.1\nsquared_error = 0.1\nsamples = 2\nvalue = 11.4"] ;
482 -> 484 ;
485 [label="squared_error = -0.0\nsamples = 1\nvalue = 11.2"] ;
484 -> 485 ;
486 [label="squared_error = -0.0\nsamples = 1\nvalue = 11.8"] ;
484 -> 486 ;
487 [label="num_comments <= 10.9\nsquared_error = 2.5\nsamples = 44\nvalue = 9.1"] ;
479 -> 487 ;
488 [label="Positive_Sentiment <= 0.1\nsquared_error = 2.4\nsamples = 3\nvalue = 6.2"] ;
487 -> 488 ;
489 [label="num_comments <= 10.8\nsquared_error = 0.0\nsamples = 2\nvalue = 5.1"] ;
488 -> 489 ;
490 [label="squared_error = 0.0\nsamples = 1\nvalue = 4.9"] ;
489 -> 490 ;
491 [label="squared_error = -0.0\nsamples = 1\nvalue = 5.3"] ;
489 -> 491 ;
492 [label="squared_error = 0.0\nsamples = 1\nvalue = 8.3"] ;
488 -> 492 ;
493 [label="Compound_Sentiment <= 0.1\nsquared_error = 2.0\nsamples = 41\nvalue = 9.3"] ;
487 -> 493 ;
494 [label="num_comments <= 16.3\nsquared_error = 1.7\nsamples = 36\nvalue = 9.5"] ;
493 -> 494 ;
495 [label="score <= 2.5\nsquared_error = 1.2\nsamples = 27\nvalue = 9.8"] ;
494 -> 495 ;
496 [label="squared_error = 0.0\nsamples = 1\nvalue = 12.9"] ;
495 -> 496 ;
497 [label="Neutral_Sentiment <= 0.9\nsquared_error = 1.0\nsamples = 26\nvalue = 9.8"] ;
495 -> 497 ;
498 [label="Neutral_Sentiment <= 0.8\nsquared_error = 0.4\nsamples = 4\nvalue = 8.7"] ;
497 -> 498 ;
499 [label="Positive_Sentiment <= 0.1\nsquared_error = 0.0\nsamples = 3\nvalue = 9.1"] ;
498 -> 499 ;
500 [label="squared_error = 0.0\nsamples = 1\nvalue = 9.1"] ;
499 -> 500 ;
501 [label="Positive_Sentiment <= 0.1\nsquared_error = 0.0\nsamples = 2\nvalue = 9.2"] ;
499 -> 501 ;
502 [label="squared_error = 0.0\nsamples = 1\nvalue = 9.2"] ;
501 -> 502 ;
503 [label="squared_error = 0.0\nsamples = 1\nvalue = 9.2"] ;
501 -> 503 ;
504 [label="squared_error = 0.0\nsamples = 1\nvalue = 7.8"] ;
498 -> 504 ;
505 [label="Positive_Sentiment <= 0.1\nsquared_error = 0.9\nsamples = 22\nvalue = 10.0"] ;
497 -> 505 ;
506 [label="score <= 7.0\nsquared_error = 0.6\nsamples = 12\nvalue = 9.5"] ;
505 -> 506 ;
507 [label="Compound_Sentiment <= -0.0\nsquared_error = 0.3\nsamples = 9\nvalue = 9.7"] ;
506 -> 507 ;
508 [label="squared_error = 0.0\nsamples = 1\nvalue = 8.8"] ;
507 -> 508 ;
509 [label="num_comments <= 12.9\nsquared_error = 0.2\nsamples = 8\nvalue = 9.8"] ;
507 -> 509 ;
510 [label="Negative_Sentiment <= 0.1\nsquared_error = 0.1\nsamples = 4\nvalue = 10.4"] ;
509 -> 510 ;
511 [label="Negative_Sentiment <= 0.0\nsquared_error = 0.0\nsamples = 3\nvalue = 10.2"] ;
510 -> 511 ;
512 [label="squared_error = 0.0\nsamples = 1\nvalue = 10.4"] ;
511 -> 512 ;
513 [label="Positive_Sentiment <= 0.1\nsquared_error = 0.0\nsamples = 2\nvalue = 10.1"] ;
511 -> 513 ;
514 [label="squared_error = 0.0\nsamples = 1\nvalue = 10.1"] ;
513 -> 514 ;
515 [label="squared_error = 0.0\nsamples = 1\nvalue = 10.0"] ;
513 -> 515 ;
516 [label="squared_error = 0.0\nsamples = 1\nvalue = 10.9"] ;
510 -> 516 ;
517 [label="Compound_Sentiment <= -0.0\nsquared_error = 0.1\nsamples = 4\nvalue = 9.6"] ;
509 -> 517 ;
518 [label="squared_error = 0.0\nsamples = 1\nvalue = 10.1"] ;
517 -> 518 ;
519 [label="Positive_Sentiment <= 0.1\nsquared_error = 0.0\nsamples = 3\nvalue = 9.5"] ;
517 -> 519 ;
520 [label="Positive_Sentiment <= 0.0\nsquared_error = 0.0\nsamples = 2\nvalue = 9.5"] ;
519 -> 520 ;
521 [label="squared_error = 0.0\nsamples = 1\nvalue = 9.4"] ;
520 -> 521 ;
522 [label="squared_error = 0.0\nsamples = 1\nvalue = 9.6"] ;
520 -> 522 ;
523 [label="squared_error = -0.0\nsamples = 1\nvalue = 9.1"] ;
519 -> 523 ;
524 [label="num_comments <= 12.6\nsquared_error = 1.4\nsamples = 3\nvalue = 8.6"] ;
506 -> 524 ;
525 [label="squared_error = 0.0\nsamples = 1\nvalue = 7.0"] ;
524 -> 525 ;
526 [label="score <= 8.4\nsquared_error = 0.0\nsamples = 2\nvalue = 9.5"] ;
524 -> 526 ;
527 [label="squared_error = 0.0\nsamples = 1\nvalue = 9.4"] ;
526 -> 527 ;
528 [label="squared_error = -0.0\nsamples = 1\nvalue = 9.5"] ;
526 -> 528 ;
529 [label="num_comments <= 14.6\nsquared_error = 0.6\nsamples = 10\nvalue = 10.6"] ;
505 -> 529 ;
530 [label="Positive_Sentiment <= 0.1\nsquared_error = 0.1\nsamples = 5\nvalue = 11.3"] ;
529 -> 530 ;
531 [label="Neutral_Sentiment <= 0.9\nsquared_error = 0.0\nsamples = 2\nvalue = 11.8"] ;
530 -> 531 ;
532 [label="squared_error = 0.0\nsamples = 1\nvalue = 11.8"] ;
531 -> 532 ;
533 [label="squared_error = 0.0\nsamples = 1\nvalue = 11.7"] ;
531 -> 533 ;
534 [label="Positive_Sentiment <= 0.1\nsquared_error = 0.0\nsamples = 3\nvalue = 11.0"] ;
530 -> 534 ;
535 [label="score <= 6.8\nsquared_error = 0.0\nsamples = 2\nvalue = 11.1"] ;
534 -> 535 ;
536 [label="squared_error = 0.0\nsamples = 1\nvalue = 11.1"] ;
535 -> 536 ;
537 [label="squared_error = 0.0\nsamples = 1\nvalue = 11.1"] ;
535 -> 537 ;
538 [label="squared_error = -0.0\nsamples = 1\nvalue = 10.8"] ;
534 -> 538 ;
539 [label="num_comments <= 15.7\nsquared_error = 0.3\nsamples = 5\nvalue = 10.1"] ;
529 -> 539 ;
540 [label="score <= 6.5\nsquared_error = 0.1\nsamples = 3\nvalue = 9.9"] ;
539 -> 540 ;
541 [label="Positive_Sentiment <= 0.1\nsquared_error = 0.0\nsamples = 2\nvalue = 10.2"] ;
540 -> 541 ;
542 [label="squared_error = 0.0\nsamples = 1\nvalue = 10.2"] ;
541 -> 542 ;
543 [label="squared_error = 0.0\nsamples = 1\nvalue = 10.2"] ;
541 -> 543 ;
544 [label="squared_error = 0.0\nsamples = 1\nvalue = 9.5"] ;
540 -> 544 ;
545 [label="Negative_Sentiment <= 0.0\nsquared_error = 0.0\nsamples = 2\nvalue = 11.0"] ;
539 -> 545 ;
546 [label="squared_error = 0.0\nsamples = 1\nvalue = 10.8"] ;
545 -> 546 ;
547 [label="squared_error = -0.0\nsamples = 1\nvalue = 11.1"] ;
545 -> 547 ;
548 [label="score <= 3.5\nsquared_error = 1.5\nsamples = 9\nvalue = 8.3"] ;
494 -> 548 ;
549 [label="squared_error = 0.0\nsamples = 1\nvalue = 5.8"] ;
548 -> 549 ;
550 [label="Positive_Sentiment <= 0.1\nsquared_error = 1.0\nsamples = 8\nvalue = 8.5"] ;
548 -> 550 ;
551 [label="Compound_Sentiment <= -0.0\nsquared_error = 0.2\nsamples = 6\nvalue = 9.1"] ;
550 -> 551 ;
552 [label="squared_error = 0.0\nsamples = 1\nvalue = 9.8"] ;
551 -> 552 ;
553 [label="Positive_Sentiment <= 0.0\nsquared_error = 0.1\nsamples = 5\nvalue = 8.9"] ;
551 -> 553 ;
554 [label="num_comments <= 21.5\nsquared_error = 0.0\nsamples = 2\nvalue = 8.5"] ;
553 -> 554 ;
555 [label="squared_error = 0.0\nsamples = 1\nvalue = 8.5"] ;
554 -> 555 ;
556 [label="squared_error = 0.0\nsamples = 1\nvalue = 8.5"] ;
554 -> 556 ;
557 [label="num_comments <= 17.2\nsquared_error = 0.0\nsamples = 3\nvalue = 9.0"] ;
553 -> 557 ;
558 [label="Neutral_Sentiment <= 0.9\nsquared_error = 0.0\nsamples = 2\nvalue = 8.9"] ;
557 -> 558 ;
559 [label="squared_error = 0.0\nsamples = 1\nvalue = 9.0"] ;
558 -> 559 ;
560 [label="squared_error = 0.0\nsamples = 1\nvalue = 8.9"] ;
558 -> 560 ;
561 [label="squared_error = 0.0\nsamples = 1\nvalue = 9.3"] ;
557 -> 561 ;
562 [label="Positive_Sentiment <= 0.1\nsquared_error = 0.1\nsamples = 2\nvalue = 7.1"] ;
550 -> 562 ;
563 [label="squared_error = 0.0\nsamples = 1\nvalue = 7.2"] ;
562 -> 563 ;
564 [label="squared_error = 0.0\nsamples = 1\nvalue = 6.7"] ;
562 -> 564 ;
565 [label="score <= 5.5\nsquared_error = 2.3\nsamples = 5\nvalue = 8.1"] ;
493 -> 565 ;
566 [label="Neutral_Sentiment <= 0.9\nsquared_error = 0.4\nsamples = 2\nvalue = 5.2"] ;
565 -> 566 ;
567 [label="squared_error = 0.0\nsamples = 1\nvalue = 4.6"] ;
566 -> 567 ;
568 [label="squared_error = 0.0\nsamples = 1\nvalue = 5.8"] ;
566 -> 568 ;
569 [label="Compound_Sentiment <= 0.2\nsquared_error = 0.1\nsamples = 3\nvalue = 8.9"] ;
565 -> 569 ;
570 [label="num_comments <= 14.9\nsquared_error = 0.0\nsamples = 2\nvalue = 9.1"] ;
569 -> 570 ;
571 [label="squared_error = 0.0\nsamples = 1\nvalue = 9.1"] ;
570 -> 571 ;
572 [label="squared_error = 0.0\nsamples = 1\nvalue = 9.4"] ;
570 -> 572 ;
573 [label="squared_error = 0.0\nsamples = 1\nvalue = 8.6"] ;
569 -> 573 ;
574 [label="squared_error = -0.0\nsamples = 1\nvalue = 4.4"] ;
368 -> 574 ;
575 [label="Positive_Sentiment <= 0.2\nsquared_error = 3.6\nsamples = 68\nvalue = 10.3"] ;
367 -> 575 ;
576 [label="Positive_Sentiment <= 0.1\nsquared_error = 2.2\nsamples = 51\nvalue = 10.7"] ;
575 -> 576 ;
577 [label="Positive_Sentiment <= 0.1\nsquared_error = 2.5\nsamples = 9\nvalue = 12.0"] ;
576 -> 577 ;
578 [label="Positive_Sentiment <= 0.1\nsquared_error = 1.6\nsamples = 8\nvalue = 11.4"] ;
577 -> 578 ;
579 [label="Negative_Sentiment <= 0.1\nsquared_error = 1.2\nsamples = 4\nvalue = 12.4"] ;
578 -> 579 ;
580 [label="Neutral_Sentiment <= 0.8\nsquared_error = 0.0\nsamples = 2\nvalue = 11.4"] ;
579 -> 580 ;
581 [label="squared_error = 0.0\nsamples = 1\nvalue = 11.5"] ;
580 -> 581 ;
582 [label="squared_error = -0.0\nsamples = 1\nvalue = 11.4"] ;
580 -> 582 ;
583 [label="Compound_Sentiment <= 0.1\nsquared_error = 0.6\nsamples = 2\nvalue = 13.3"] ;
579 -> 583 ;
584 [label="squared_error = 0.0\nsamples = 1\nvalue = 12.7"] ;
583 -> 584 ;
585 [label="squared_error = 0.0\nsamples = 1\nvalue = 14.4"] ;
583 -> 585 ;
586 [label="Compound_Sentiment <= 0.1\nsquared_error = 0.1\nsamples = 4\nvalue = 10.4"] ;
578 -> 586 ;
587 [label="Compound_Sentiment <= 0.1\nsquared_error = 0.0\nsamples = 2\nvalue = 10.1"] ;
586 -> 587 ;
588 [label="squared_error = 0.0\nsamples = 1\nvalue = 10.3"] ;
587 -> 588 ;
589 [label="squared_error = 0.0\nsamples = 1\nvalue = 10.0"] ;
587 -> 589 ;
590 [label="Positive_Sentiment <= 0.1\nsquared_error = 0.0\nsamples = 2\nvalue = 10.7"] ;
586 -> 590 ;
591 [label="squared_error = 0.0\nsamples = 1\nvalue = 10.8"] ;
590 -> 591 ;
592 [label="squared_error = -0.0\nsamples = 1\nvalue = 10.7"] ;
590 -> 592 ;
593 [label="squared_error = -0.0\nsamples = 1\nvalue = 14.2"] ;
577 -> 593 ;
594 [label="Positive_Sentiment <= 0.1\nsquared_error = 1.7\nsamples = 42\nvalue = 10.4"] ;
576 -> 594 ;
595 [label="Positive_Sentiment <= 0.1\nsquared_error = 1.7\nsamples = 37\nvalue = 10.2"] ;
594 -> 595 ;
596 [label="Neutral_Sentiment <= 0.8\nsquared_error = 1.5\nsamples = 35\nvalue = 10.3"] ;
595 -> 596 ;
597 [label="score <= 7.0\nsquared_error = 0.6\nsamples = 10\nvalue = 11.1"] ;
596 -> 597 ;
598 [label="Negative_Sentiment <= 0.1\nsquared_error = 0.3\nsamples = 8\nvalue = 10.8"] ;
597 -> 598 ;
599 [label="score <= 6.2\nsquared_error = 0.0\nsamples = 3\nvalue = 11.4"] ;
598 -> 599 ;
600 [label="Negative_Sentiment <= 0.1\nsquared_error = 0.0\nsamples = 2\nvalue = 11.4"] ;
599 -> 600 ;
601 [label="squared_error = 0.0\nsamples = 1\nvalue = 11.4"] ;
600 -> 601 ;
602 [label="squared_error = 0.0\nsamples = 1\nvalue = 11.4"] ;
600 -> 602 ;
603 [label="squared_error = 0.0\nsamples = 1\nvalue = 11.4"] ;
599 -> 603 ;
604 [label="Neutral_Sentiment <= 0.7\nsquared_error = 0.2\nsamples = 5\nvalue = 10.5"] ;
598 -> 604 ;
605 [label="squared_error = 0.0\nsamples = 1\nvalue = 11.0"] ;
604 -> 605 ;
606 [label="Positive_Sentiment <= 0.1\nsquared_error = 0.1\nsamples = 4\nvalue = 10.2"] ;
604 -> 606 ;
607 [label="Positive_Sentiment <= 0.1\nsquared_error = 0.0\nsamples = 3\nvalue = 10.3"] ;
606 -> 607 ;
608 [label="score <= 4.0\nsquared_error = 0.0\nsamples = 2\nvalue = 10.4"] ;
607 -> 608 ;
609 [label="squared_error = 0.0\nsamples = 1\nvalue = 10.4"] ;
608 -> 609 ;
610 [label="squared_error = 0.0\nsamples = 1\nvalue = 10.4"] ;
608 -> 610 ;
611 [label="squared_error = 0.0\nsamples = 1\nvalue = 10.2"] ;
607 -> 611 ;
612 [label="squared_error = -0.0\nsamples = 1\nvalue = 9.8"] ;
606 -> 612 ;
613 [label="Positive_Sentiment <= 0.1\nsquared_error = 0.1\nsamples = 2\nvalue = 12.5"] ;
597 -> 613 ;
614 [label="squared_error = 0.0\nsamples = 1\nvalue = 12.1"] ;
613 -> 614 ;
615 [label="squared_error = 0.0\nsamples = 1\nvalue = 12.8"] ;
613 -> 615 ;
616 [label="num_comments <= 11.9\nsquared_error = 1.5\nsamples = 25\nvalue = 10.0"] ;
596 -> 616 ;
617 [label="score <= 4.7\nsquared_error = 1.4\nsamples = 13\nvalue = 10.6"] ;
616 -> 617 ;
618 [label="score <= 3.4\nsquared_error = 1.2\nsamples = 7\nvalue = 11.3"] ;
617 -> 618 ;
619 [label="score <= 2.7\nsquared_error = 0.2\nsamples = 2\nvalue = 9.9"] ;
618 -> 619 ;
620 [label="squared_error = 0.0\nsamples = 1\nvalue = 9.5"] ;
619 -> 620 ;
621 [label="squared_error = -0.0\nsamples = 1\nvalue = 10.3"] ;
619 -> 621 ;
622 [label="score <= 3.7\nsquared_error = 0.6\nsamples = 5\nvalue = 11.8"] ;
618 -> 622 ;
623 [label="squared_error = 0.0\nsamples = 1\nvalue = 13.3"] ;
622 -> 623 ;
624 [label="Compound_Sentiment <= 0.1\nsquared_error = 0.2\nsamples = 4\nvalue = 11.5"] ;
622 -> 624 ;
625 [label="squared_error = 0.0\nsamples = 1\nvalue = 10.9"] ;
624 -> 625 ;
626 [label="Neutral_Sentiment <= 0.9\nsquared_error = 0.1\nsamples = 3\nvalue = 11.7"] ;
624 -> 626 ;
627 [label="num_comments <= 9.4\nsquared_error = 0.0\nsamples = 2\nvalue = 11.9"] ;
626 -> 627 ;
628 [label="squared_error = 0.0\nsamples = 1\nvalue = 11.8"] ;
627 -> 628 ;
629 [label="squared_error = 0.0\nsamples = 1\nvalue = 11.9"] ;
627 -> 629 ;
630 [label="squared_error = 0.0\nsamples = 1\nvalue = 11.1"] ;
626 -> 630 ;
631 [label="score <= 6.3\nsquared_error = 0.7\nsamples = 6\nvalue = 10.0"] ;
617 -> 631 ;
632 [label="Negative_Sentiment <= 0.0\nsquared_error = 0.6\nsamples = 4\nvalue = 9.4"] ;
631 -> 632 ;
633 [label="num_comments <= 10.0\nsquared_error = 0.0\nsamples = 3\nvalue = 9.0"] ;
632 -> 633 ;
634 [label="Compound_Sentiment <= 0.2\nsquared_error = 0.0\nsamples = 2\nvalue = 9.1"] ;
633 -> 634 ;
635 [label="squared_error = 0.0\nsamples = 1\nvalue = 9.2"] ;
634 -> 635 ;
636 [label="squared_error = 0.0\nsamples = 1\nvalue = 9.1"] ;
634 -> 636 ;
637 [label="squared_error = -0.0\nsamples = 1\nvalue = 8.9"] ;
633 -> 637 ;
638 [label="squared_error = -0.0\nsamples = 1\nvalue = 11.0"] ;
632 -> 638 ;
639 [label="num_comments <= 9.5\nsquared_error = 0.1\nsamples = 2\nvalue = 10.6"] ;
631 -> 639 ;
640 [label="squared_error = 0.0\nsamples = 1\nvalue = 10.5"] ;
639 -> 640 ;
641 [label="squared_error = 0.0\nsamples = 1\nvalue = 11.1"] ;
639 -> 641 ;
642 [label="score <= 6.1\nsquared_error = 1.2\nsamples = 12\nvalue = 9.6"] ;
616 -> 642 ;
643 [label="Positive_Sentiment <= 0.1\nsquared_error = 2.0\nsamples = 5\nvalue = 8.7"] ;
642 -> 643 ;
644 [label="Compound_Sentiment <= 0.1\nsquared_error = 2.4\nsamples = 3\nvalue = 8.0"] ;
643 -> 644 ;
645 [label="squared_error = 0.0\nsamples = 1\nvalue = 5.4"] ;
644 -> 645 ;
646 [label="num_comments <= 12.1\nsquared_error = 0.0\nsamples = 2\nvalue = 8.9"] ;
644 -> 646 ;
647 [label="squared_error = 0.0\nsamples = 1\nvalue = 9.0"] ;
646 -> 647 ;
648 [label="squared_error = 0.0\nsamples = 1\nvalue = 8.7"] ;
646 -> 648 ;
649 [label="Positive_Sentiment <= 0.1\nsquared_error = 0.0\nsamples = 2\nvalue = 9.7"] ;
643 -> 649 ;
650 [label="squared_error = 0.0\nsamples = 1\nvalue = 9.9"] ;
649 -> 650 ;
651 [label="squared_error = 0.0\nsamples = 1\nvalue = 9.5"] ;
649 -> 651 ;
652 [label="Negative_Sentiment <= 0.1\nsquared_error = 0.3\nsamples = 7\nvalue = 10.0"] ;
642 -> 652 ;
653 [label="num_comments <= 14.4\nsquared_error = 0.1\nsamples = 3\nvalue = 10.3"] ;
652 -> 653 ;
654 [label="num_comments <= 12.9\nsquared_error = 0.0\nsamples = 2\nvalue = 10.2"] ;
653 -> 654 ;
655 [label="squared_error = 0.0\nsamples = 1\nvalue = 10.3"] ;
654 -> 655 ;
656 [label="squared_error = 0.0\nsamples = 1\nvalue = 10.1"] ;
654 -> 656 ;
657 [label="squared_error = -0.0\nsamples = 1\nvalue = 10.7"] ;
653 -> 657 ;
658 [label="Positive_Sentiment <= 0.1\nsquared_error = 0.2\nsamples = 4\nvalue = 9.5"] ;
652 -> 658 ;
659 [label="score <= 8.5\nsquared_error = 0.1\nsamples = 3\nvalue = 9.7"] ;
658 -> 659 ;
660 [label="score <= 7.2\nsquared_error = 0.0\nsamples = 2\nvalue = 9.6"] ;
659 -> 660 ;
661 [label="squared_error = 0.0\nsamples = 1\nvalue = 9.6"] ;
660 -> 661 ;
662 [label="squared_error = 0.0\nsamples = 1\nvalue = 9.5"] ;
660 -> 662 ;
663 [label="squared_error = -0.0\nsamples = 1\nvalue = 10.2"] ;
659 -> 663 ;
664 [label="squared_error = -0.0\nsamples = 1\nvalue = 8.7"] ;
658 -> 664 ;
665 [label="Negative_Sentiment <= 0.1\nsquared_error = 3.3\nsamples = 2\nvalue = 9.1"] ;
595 -> 665 ;
666 [label="squared_error = -0.0\nsamples = 1\nvalue = 10.1"] ;
665 -> 666 ;
667 [label="squared_error = 0.0\nsamples = 1\nvalue = 5.9"] ;
665 -> 667 ;
668 [label="Compound_Sentiment <= 0.1\nsquared_error = 0.3\nsamples = 5\nvalue = 11.5"] ;
594 -> 668 ;
669 [label="squared_error = 0.0\nsamples = 1\nvalue = 10.1"] ;
668 -> 669 ;
670 [label="Compound_Sentiment <= 0.1\nsquared_error = 0.1\nsamples = 4\nvalue = 11.6"] ;
668 -> 670 ;
671 [label="score <= 6.0\nsquared_error = 0.0\nsamples = 2\nvalue = 11.2"] ;
670 -> 671 ;
672 [label="squared_error = 0.0\nsamples = 1\nvalue = 11.1"] ;
671 -> 672 ;
673 [label="squared_error = 0.0\nsamples = 1\nvalue = 11.5"] ;
671 -> 673 ;
674 [label="Compound_Sentiment <= 0.1\nsquared_error = 0.0\nsamples = 2\nvalue = 11.8"] ;
670 -> 674 ;
675 [label="squared_error = -0.0\nsamples = 1\nvalue = 11.7"] ;
674 -> 675 ;
676 [label="squared_error = 0.0\nsamples = 1\nvalue = 11.9"] ;
674 -> 676 ;
677 [label="Neutral_Sentiment <= 0.8\nsquared_error = 6.0\nsamples = 17\nvalue = 9.2"] ;
575 -> 677 ;
678 [label="Negative_Sentiment <= 0.1\nsquared_error = 4.3\nsamples = 14\nvalue = 9.7"] ;
677 -> 678 ;
679 [label="score <= 5.1\nsquared_error = 0.4\nsamples = 10\nvalue = 10.8"] ;
678 -> 679 ;
680 [label="Compound_Sentiment <= 0.3\nsquared_error = 0.1\nsamples = 4\nvalue = 10.0"] ;
679 -> 680 ;
681 [label="Neutral_Sentiment <= 0.8\nsquared_error = 0.0\nsamples = 3\nvalue = 10.2"] ;
680 -> 681 ;
682 [label="Compound_Sentiment <= 0.1\nsquared_error = 0.0\nsamples = 2\nvalue = 10.3"] ;
681 -> 682 ;
683 [label="squared_error = 0.0\nsamples = 1\nvalue = 10.2"] ;
682 -> 683 ;
684 [label="squared_error = 0.0\nsamples = 1\nvalue = 10.3"] ;
682 -> 684 ;
685 [label="squared_error = -0.0\nsamples = 1\nvalue = 10.0"] ;
681 -> 685 ;
686 [label="squared_error = -0.0\nsamples = 1\nvalue = 9.5"] ;
680 -> 686 ;
687 [label="Compound_Sentiment <= 0.2\nsquared_error = 0.3\nsamples = 6\nvalue = 11.0"] ;
679 -> 687 ;
688 [label="Negative_Sentiment <= 0.0\nsquared_error = 0.1\nsamples = 3\nvalue = 11.3"] ;
687 -> 688 ;
689 [label="squared_error = 0.0\nsamples = 1\nvalue = 11.6"] ;
688 -> 689 ;
690 [label="num_comments <= 14.2\nsquared_error = 0.0\nsamples = 2\nvalue = 11.1"] ;
688 -> 690 ;
691 [label="squared_error = 0.0\nsamples = 1\nvalue = 11.1"] ;
690 -> 691 ;
692 [label="squared_error = 0.0\nsamples = 1\nvalue = 11.1"] ;
690 -> 692 ;
693 [label="num_comments <= 20.0\nsquared_error = 0.3\nsamples = 3\nvalue = 10.6"] ;
687 -> 693 ;
694 [label="score <= 7.4\nsquared_error = 0.0\nsamples = 2\nvalue = 9.9"] ;
693 -> 694 ;
695 [label="squared_error = 0.0\nsamples = 1\nvalue = 9.8"] ;
694 -> 695 ;
696 [label="squared_error = -0.0\nsamples = 1\nvalue = 10.0"] ;
694 -> 696 ;
697 [label="squared_error = 0.0\nsamples = 1\nvalue = 11.0"] ;
693 -> 697 ;
698 [label="num_comments <= 11.0\nsquared_error = 2.9\nsamples = 4\nvalue = 6.8"] ;
678 -> 698 ;
699 [label="Compound_Sentiment <= 0.1\nsquared_error = 0.5\nsamples = 2\nvalue = 5.8"] ;
698 -> 699 ;
700 [label="squared_error = 0.0\nsamples = 1\nvalue = 6.7"] ;
699 -> 700 ;
701 [label="squared_error = 0.0\nsamples = 1\nvalue = 5.3"] ;
699 -> 701 ;
702 [label="num_comments <= 14.5\nsquared_error = 0.0\nsamples = 2\nvalue = 9.4"] ;
698 -> 702 ;
703 [label="squared_error = 0.0\nsamples = 1\nvalue = 9.3"] ;
702 -> 703 ;
704 [label="squared_error = 0.0\nsamples = 1\nvalue = 9.4"] ;
702 -> 704 ;
705 [label="num_comments <= 16.3\nsquared_error = 2.1\nsamples = 3\nvalue = 5.1"] ;
677 -> 705 ;
706 [label="Compound_Sentiment <= 0.3\nsquared_error = 0.0\nsamples = 2\nvalue = 4.1"] ;
705 -> 706 ;
707 [label="squared_error = 0.0\nsamples = 1\nvalue = 4.2"] ;
706 -> 707 ;
708 [label="squared_error = 0.0\nsamples = 1\nvalue = 4.0"] ;
706 -> 708 ;
709 [label="squared_error = 0.0\nsamples = 1\nvalue = 7.2"] ;
705 -> 709 ;
710 [label="num_comments <= 26.4\nsquared_error = 0.7\nsamples = 3\nvalue = 12.2"] ;
366 -> 710 ;
711 [label="score <= 5.5\nsquared_error = 1.1\nsamples = 2\nvalue = 11.5"] ;
710 -> 711 ;
712 [label="squared_error = 0.0\nsamples = 1\nvalue = 13.0"] ;
711 -> 712 ;
713 [label="squared_error = 0.0\nsamples = 1\nvalue = 10.8"] ;
711 -> 713 ;
714 [label="squared_error = 0.0\nsamples = 1\nvalue = 12.6"] ;
710 -> 714 ;
715 [label="score <= 3.2\nsquared_error = 7.4\nsamples = 6\nvalue = 6.4"] ;
363 -> 715 ;
716 [label="squared_error = 0.0\nsamples = 1\nvalue = 10.3"] ;
715 -> 716 ;
717 [label="num_comments <= 20.8\nsquared_error = 3.1\nsamples = 5\nvalue = 5.1"] ;
715 -> 717 ;
718 [label="Compound_Sentiment <= 0.3\nsquared_error = 0.0\nsamples = 4\nvalue = 4.3"] ;
717 -> 718 ;
719 [label="num_comments <= 14.1\nsquared_error = 0.0\nsamples = 2\nvalue = 4.6"] ;
718 -> 719 ;
720 [label="squared_error = 0.0\nsamples = 1\nvalue = 4.6"] ;
719 -> 720 ;
721 [label="squared_error = 0.0\nsamples = 1\nvalue = 4.6"] ;
719 -> 721 ;
722 [label="Compound_Sentiment <= 0.4\nsquared_error = 0.0\nsamples = 2\nvalue = 4.2"] ;
718 -> 722 ;
723 [label="squared_error = 0.0\nsamples = 1\nvalue = 4.2"] ;
722 -> 723 ;
724 [label="squared_error = 0.0\nsamples = 1\nvalue = 4.1"] ;
722 -> 724 ;
725 [label="squared_error = 0.0\nsamples = 1\nvalue = 9.0"] ;
717 -> 725 ;
726 [label="num_comments <= 7.4\nsquared_error = 4.2\nsamples = 141\nvalue = 8.0"] ;
52 -> 726 ;
727 [label="Compound_Sentiment <= 0.5\nsquared_error = 0.5\nsamples = 5\nvalue = 5.0"] ;
726 -> 727 ;
728 [label="Negative_Sentiment <= 0.0\nsquared_error = 0.0\nsamples = 4\nvalue = 4.8"] ;
727 -> 728 ;
729 [label="num_comments <= 3.8\nsquared_error = 0.0\nsamples = 2\nvalue = 4.6"] ;
728 -> 729 ;
730 [label="squared_error = 0.0\nsamples = 1\nvalue = 4.5"] ;
729 -> 730 ;
731 [label="squared_error = 0.0\nsamples = 1\nvalue = 4.7"] ;
729 -> 731 ;
732 [label="num_comments <= 4.5\nsquared_error = 0.0\nsamples = 2\nvalue = 4.8"] ;
728 -> 732 ;
733 [label="squared_error = 0.0\nsamples = 1\nvalue = 4.8"] ;
732 -> 733 ;
734 [label="squared_error = 0.0\nsamples = 1\nvalue = 4.9"] ;
732 -> 734 ;
735 [label="squared_error = -0.0\nsamples = 1\nvalue = 7.0"] ;
727 -> 735 ;
736 [label="num_comments <= 24.3\nsquared_error = 4.0\nsamples = 136\nvalue = 8.2"] ;
726 -> 736 ;
737 [label="Negative_Sentiment <= 0.0\nsquared_error = 3.7\nsamples = 133\nvalue = 8.1"] ;
736 -> 737 ;
738 [label="Positive_Sentiment <= 0.5\nsquared_error = 7.0\nsamples = 10\nvalue = 6.2"] ;
737 -> 738 ;
739 [label="Compound_Sentiment <= 0.2\nsquared_error = 0.3\nsamples = 9\nvalue = 5.2"] ;
738 -> 739 ;
740 [label="num_comments <= 11.0\nsquared_error = 0.2\nsamples = 4\nvalue = 5.6"] ;
739 -> 740 ;
741 [label="squared_error = 0.0\nsamples = 1\nvalue = 6.5"] ;
740 -> 741 ;
742 [label="Compound_Sentiment <= 0.1\nsquared_error = 0.0\nsamples = 3\nvalue = 5.4"] ;
740 -> 742 ;
743 [label="num_comments <= 20.0\nsquared_error = 0.0\nsamples = 2\nvalue = 5.5"] ;
742 -> 743 ;
744 [label="squared_error = 0.0\nsamples = 1\nvalue = 5.7"] ;
743 -> 744 ;
745 [label="squared_error = 0.0\nsamples = 1\nvalue = 5.4"] ;
743 -> 745 ;
746 [label="squared_error = -0.0\nsamples = 1\nvalue = 5.3"] ;
742 -> 746 ;
747 [label="Positive_Sentiment <= 0.2\nsquared_error = 0.0\nsamples = 5\nvalue = 4.7"] ;
739 -> 747 ;
748 [label="Compound_Sentiment <= 0.3\nsquared_error = 0.0\nsamples = 2\nvalue = 4.5"] ;
747 -> 748 ;
749 [label="squared_error = 0.0\nsamples = 1\nvalue = 4.5"] ;
748 -> 749 ;
750 [label="squared_error = 0.0\nsamples = 1\nvalue = 4.6"] ;
748 -> 750 ;
751 [label="score <= 12.5\nsquared_error = 0.0\nsamples = 3\nvalue = 4.8"] ;
747 -> 751 ;
752 [label="num_comments <= 11.2\nsquared_error = 0.0\nsamples = 2\nvalue = 4.9"] ;
751 -> 752 ;
753 [label="squared_error = 0.0\nsamples = 1\nvalue = 4.8"] ;
752 -> 753 ;
754 [label="squared_error = 0.0\nsamples = 1\nvalue = 4.9"] ;
752 -> 754 ;
755 [label="squared_error = -0.0\nsamples = 1\nvalue = 4.7"] ;
751 -> 755 ;
756 [label="squared_error = -0.0\nsamples = 1\nvalue = 12.8"] ;
738 -> 756 ;
757 [label="Compound_Sentiment <= 0.0\nsquared_error = 3.2\nsamples = 123\nvalue = 8.2"] ;
737 -> 757 ;
758 [label="Compound_Sentiment <= -0.0\nsquared_error = 2.2\nsamples = 65\nvalue = 7.8"] ;
757 -> 758 ;
759 [label="score <= 14.7\nsquared_error = 2.2\nsamples = 8\nvalue = 9.8"] ;
758 -> 759 ;
760 [label="Compound_Sentiment <= -0.1\nsquared_error = 1.2\nsamples = 5\nvalue = 8.6"] ;
759 -> 760 ;
761 [label="Negative_Sentiment <= 0.2\nsquared_error = 0.4\nsamples = 2\nvalue = 10.1"] ;
760 -> 761 ;
762 [label="squared_error = 0.0\nsamples = 1\nvalue = 10.7"] ;
761 -> 762 ;
763 [label="squared_error = -0.0\nsamples = 1\nvalue = 9.5"] ;
761 -> 763 ;
764 [label="Compound_Sentiment <= -0.1\nsquared_error = 0.1\nsamples = 3\nvalue = 7.9"] ;
760 -> 764 ;
765 [label="squared_error = 0.0\nsamples = 1\nvalue = 8.5"] ;
764 -> 765 ;
766 [label="Negative_Sentiment <= 0.1\nsquared_error = 0.0\nsamples = 2\nvalue = 7.7"] ;
764 -> 766 ;
767 [label="squared_error = 0.0\nsamples = 1\nvalue = 7.8"] ;
766 -> 767 ;
768 [label="squared_error = 0.0\nsamples = 1\nvalue = 7.7"] ;
766 -> 768 ;
769 [label="score <= 15.0\nsquared_error = 0.1\nsamples = 3\nvalue = 11.1"] ;
759 -> 769 ;
770 [label="squared_error = 0.0\nsamples = 1\nvalue = 11.5"] ;
769 -> 770 ;
771 [label="Neutral_Sentiment <= 0.8\nsquared_error = 0.0\nsamples = 2\nvalue = 10.9"] ;
769 -> 771 ;
772 [label="squared_error = 0.0\nsamples = 1\nvalue = 11.0"] ;
771 -> 772 ;
773 [label="squared_error = -0.0\nsamples = 1\nvalue = 10.7"] ;
771 -> 773 ;
774 [label="Neutral_Sentiment <= 0.9\nsquared_error = 1.6\nsamples = 57\nvalue = 7.6"] ;
758 -> 774 ;
775 [label="score <= 11.3\nsquared_error = 0.8\nsamples = 47\nvalue = 7.3"] ;
774 -> 775 ;
776 [label="score <= 11.2\nsquared_error = 1.2\nsamples = 8\nvalue = 8.3"] ;
775 -> 776 ;
777 [label="Positive_Sentiment <= 0.1\nsquared_error = 0.1\nsamples = 7\nvalue = 7.7"] ;
776 -> 777 ;
778 [label="Positive_Sentiment <= 0.1\nsquared_error = 0.0\nsamples = 2\nvalue = 7.4"] ;
777 -> 778 ;
779 [label="squared_error = 0.0\nsamples = 1\nvalue = 7.6"] ;
778 -> 779 ;
780 [label="squared_error = 0.0\nsamples = 1\nvalue = 7.3"] ;
778 -> 780 ;
781 [label="Compound_Sentiment <= 0.0\nsquared_error = 0.0\nsamples = 5\nvalue = 8.0"] ;
777 -> 781 ;
782 [label="Compound_Sentiment <= -0.0\nsquared_error = 0.0\nsamples = 2\nvalue = 7.8"] ;
781 -> 782 ;
783 [label="squared_error = 0.0\nsamples = 1\nvalue = 7.8"] ;
782 -> 783 ;
784 [label="squared_error = -0.0\nsamples = 1\nvalue = 7.8"] ;
782 -> 784 ;
785 [label="Neutral_Sentiment <= 0.8\nsquared_error = 0.0\nsamples = 3\nvalue = 8.2"] ;
781 -> 785 ;
786 [label="squared_error = 0.0\nsamples = 1\nvalue = 8.3"] ;
785 -> 786 ;
787 [label="Positive_Sentiment <= 0.1\nsquared_error = 0.0\nsamples = 2\nvalue = 8.1"] ;
785 -> 787 ;
788 [label="squared_error = 0.0\nsamples = 1\nvalue = 8.1"] ;
787 -> 788 ;
789 [label="squared_error = -0.0\nsamples = 1\nvalue = 8.1"] ;
787 -> 789 ;
790 [label="squared_error = 0.0\nsamples = 1\nvalue = 10.3"] ;
776 -> 790 ;
791 [label="Positive_Sentiment <= 0.1\nsquared_error = 0.4\nsamples = 39\nvalue = 7.0"] ;
775 -> 791 ;
792 [label="squared_error = 0.0\nsamples = 1\nvalue = 4.4"] ;
791 -> 792 ;
793 [label="Neutral_Sentiment <= 0.8\nsquared_error = 0.3\nsamples = 38\nvalue = 7.1"] ;
791 -> 793 ;
794 [label="Positive_Sentiment <= 0.1\nsquared_error = 0.3\nsamples = 20\nvalue = 7.2"] ;
793 -> 794 ;
795 [label="Positive_Sentiment <= 0.1\nsquared_error = 0.1\nsamples = 11\nvalue = 7.5"] ;
794 -> 795 ;
796 [label="Positive_Sentiment <= 0.1\nsquared_error = 0.1\nsamples = 5\nvalue = 7.2"] ;
795 -> 796 ;
797 [label="Compound_Sentiment <= -0.0\nsquared_error = 0.1\nsamples = 3\nvalue = 7.4"] ;
796 -> 797 ;
798 [label="Neutral_Sentiment <= 0.8\nsquared_error = 0.0\nsamples = 2\nvalue = 7.3"] ;
797 -> 798 ;
799 [label="squared_error = 0.0\nsamples = 1\nvalue = 7.3"] ;
798 -> 799 ;
800 [label="squared_error = 0.0\nsamples = 1\nvalue = 7.3"] ;
798 -> 800 ;
801 [label="squared_error = 0.0\nsamples = 1\nvalue = 7.9"] ;
797 -> 801 ;
802 [label="Neutral_Sentiment <= 0.8\nsquared_error = 0.0\nsamples = 2\nvalue = 6.8"] ;
796 -> 802 ;
803 [label="squared_error = 0.0\nsamples = 1\nvalue = 6.8"] ;
802 -> 803 ;
804 [label="squared_error = -0.0\nsamples = 1\nvalue = 6.7"] ;
802 -> 804 ;
805 [label="num_comments <= 11.9\nsquared_error = 0.0\nsamples = 6\nvalue = 7.8"] ;
795 -> 805 ;
806 [label="Negative_Sentiment <= 0.1\nsquared_error = 0.0\nsamples = 3\nvalue = 7.7"] ;
805 -> 806 ;
807 [label="squared_error = 0.0\nsamples = 1\nvalue = 7.8"] ;
806 -> 807 ;
808 [label="Compound_Sentiment <= 0.0\nsquared_error = 0.0\nsamples = 2\nvalue = 7.7"] ;
806 -> 808 ;
809 [label="squared_error = 0.0\nsamples = 1\nvalue = 7.7"] ;
808 -> 809 ;
810 [label="squared_error = 0.0\nsamples = 1\nvalue = 7.7"] ;
808 -> 810 ;
811 [label="score <= 12.7\nsquared_error = 0.0\nsamples = 3\nvalue = 8.0"] ;
805 -> 811 ;
812 [label="squared_error = 0.0\nsamples = 1\nvalue = 7.9"] ;
811 -> 812 ;
813 [label="score <= 15.3\nsquared_error = 0.0\nsamples = 2\nvalue = 8.0"] ;
811 -> 813 ;
814 [label="squared_error = 0.0\nsamples = 1\nvalue = 8.0"] ;
813 -> 814 ;
815 [label="squared_error = 0.0\nsamples = 1\nvalue = 8.1"] ;
813 -> 815 ;
816 [label="Compound_Sentiment <= -0.0\nsquared_error = 0.2\nsamples = 9\nvalue = 6.9"] ;
794 -> 816 ;
817 [label="squared_error = 0.0\nsamples = 1\nvalue = 7.9"] ;
816 -> 817 ;
818 [label="Negative_Sentiment <= 0.1\nsquared_error = 0.1\nsamples = 8\nvalue = 6.8"] ;
816 -> 818 ;
819 [label="Compound_Sentiment <= 0.0\nsquared_error = 0.2\nsamples = 2\nvalue = 7.4"] ;
818 -> 819 ;
820 [label="squared_error = 0.0\nsamples = 1\nvalue = 7.8"] ;
819 -> 820 ;
821 [label="squared_error = 0.0\nsamples = 1\nvalue = 7.0"] ;
819 -> 821 ;
822 [label="num_comments <= 13.2\nsquared_error = 0.0\nsamples = 6\nvalue = 6.7"] ;
818 -> 822 ;
823 [label="Negative_Sentiment <= 0.1\nsquared_error = 0.0\nsamples = 3\nvalue = 7.0"] ;
822 -> 823 ;
824 [label="Compound_Sentiment <= 0.0\nsquared_error = 0.0\nsamples = 2\nvalue = 6.8"] ;
823 -> 824 ;
825 [label="squared_error = 0.0\nsamples = 1\nvalue = 6.8"] ;
824 -> 825 ;
826 [label="squared_error = 0.0\nsamples = 1\nvalue = 6.8"] ;
824 -> 826 ;
827 [label="squared_error = -0.0\nsamples = 1\nvalue = 7.1"] ;
823 -> 827 ;
828 [label="Neutral_Sentiment <= 0.8\nsquared_error = 0.0\nsamples = 3\nvalue = 6.6"] ;
822 -> 828 ;
829 [label="squared_error = 0.0\nsamples = 1\nvalue = 6.5"] ;
828 -> 829 ;
830 [label="num_comments <= 16.1\nsquared_error = 0.0\nsamples = 2\nvalue = 6.6"] ;
828 -> 830 ;
831 [label="squared_error = -0.0\nsamples = 1\nvalue = 6.6"] ;
830 -> 831 ;
832 [label="squared_error = 0.0\nsamples = 1\nvalue = 6.7"] ;
830 -> 832 ;
833 [label="num_comments <= 13.4\nsquared_error = 0.3\nsamples = 18\nvalue = 6.9"] ;
793 -> 833 ;
834 [label="Positive_Sentiment <= 0.1\nsquared_error = 0.3\nsamples = 13\nvalue = 6.8"] ;
833 -> 834 ;
835 [label="Negative_Sentiment <= 0.1\nsquared_error = 0.1\nsamples = 12\nvalue = 6.9"] ;
834 -> 835 ;
836 [label="Positive_Sentiment <= 0.1\nsquared_error = 0.1\nsamples = 7\nvalue = 7.0"] ;
835 -> 836 ;
837 [label="Compound_Sentiment <= 0.0\nsquared_error = 0.0\nsamples = 4\nvalue = 6.8"] ;
836 -> 837 ;
838 [label="squared_error = 0.0\nsamples = 1\nvalue = 7.0"] ;
837 -> 838 ;
839 [label="Neutral_Sentiment <= 0.9\nsquared_error = 0.0\nsamples = 3\nvalue = 6.7"] ;
837 -> 839 ;
840 [label="Compound_Sentiment <= 0.0\nsquared_error = 0.0\nsamples = 2\nvalue = 6.8"] ;
839 -> 840 ;
841 [label="squared_error = 0.0\nsamples = 1\nvalue = 6.8"] ;
840 -> 841 ;
842 [label="squared_error = -0.0\nsamples = 1\nvalue = 6.7"] ;
840 -> 842 ;
843 [label="squared_error = -0.0\nsamples = 1\nvalue = 6.7"] ;
839 -> 843 ;
844 [label="Positive_Sentiment <= 0.1\nsquared_error = 0.0\nsamples = 3\nvalue = 7.3"] ;
836 -> 844 ;
845 [label="squared_error = 0.0\nsamples = 1\nvalue = 7.3"] ;
844 -> 845 ;
846 [label="num_comments <= 11.2\nsquared_error = 0.0\nsamples = 2\nvalue = 7.2"] ;
844 -> 846 ;
847 [label="squared_error = 0.0\nsamples = 1\nvalue = 7.2"] ;
846 -> 847 ;
848 [label="squared_error = 0.0\nsamples = 1\nvalue = 7.3"] ;
846 -> 848 ;
849 [label="num_comments <= 10.7\nsquared_error = 0.0\nsamples = 5\nvalue = 6.7"] ;
835 -> 849 ;
850 [label="squared_error = -0.0\nsamples = 1\nvalue = 7.0"] ;
849 -> 850 ;
851 [label="Negative_Sentiment <= 0.1\nsquared_error = 0.0\nsamples = 4\nvalue = 6.6"] ;
849 -> 851 ;
852 [label="Neutral_Sentiment <= 0.9\nsquared_error = 0.0\nsamples = 3\nvalue = 6.5"] ;
851 -> 852 ;
853 [label="Positive_Sentiment <= 0.1\nsquared_error = 0.0\nsamples = 2\nvalue = 6.6"] ;
852 -> 853 ;
854 [label="squared_error = 0.0\nsamples = 1\nvalue = 6.6"] ;
853 -> 854 ;
855 [label="squared_error = 0.0\nsamples = 1\nvalue = 6.5"] ;
853 -> 855 ;
856 [label="squared_error = 0.0\nsamples = 1\nvalue = 6.5"] ;
852 -> 856 ;
857 [label="squared_error = -0.0\nsamples = 1\nvalue = 6.6"] ;
851 -> 857 ;
858 [label="squared_error = 0.0\nsamples = 1\nvalue = 4.8"] ;
834 -> 858 ;
859 [label="Neutral_Sentiment <= 0.8\nsquared_error = 0.4\nsamples = 5\nvalue = 7.3"] ;
833 -> 859 ;
860 [label="squared_error = 0.0\nsamples = 1\nvalue = 6.3"] ;
859 -> 860 ;
861 [label="Negative_Sentiment <= 0.1\nsquared_error = 0.2\nsamples = 4\nvalue = 7.4"] ;
859 -> 861 ;
862 [label="score <= 15.3\nsquared_error = 0.0\nsamples = 2\nvalue = 7.1"] ;
861 -> 862 ;
863 [label="squared_error = 0.0\nsamples = 1\nvalue = 7.3"] ;
862 -> 863 ;
864 [label="squared_error = 0.0\nsamples = 1\nvalue = 6.8"] ;
862 -> 864 ;
865 [label="score <= 14.9\nsquared_error = 0.0\nsamples = 2\nvalue = 8.0"] ;
861 -> 865 ;
866 [label="squared_error = 0.0\nsamples = 1\nvalue = 8.0"] ;
865 -> 866 ;
867 [label="squared_error = 0.0\nsamples = 1\nvalue = 7.9"] ;
865 -> 867 ;
868 [label="Compound_Sentiment <= -0.0\nsquared_error = 3.3\nsamples = 10\nvalue = 9.2"] ;
774 -> 868 ;
869 [label="Negative_Sentiment <= 0.1\nsquared_error = 0.1\nsamples = 3\nvalue = 11.6"] ;
868 -> 869 ;
870 [label="squared_error = 0.0\nsamples = 1\nvalue = 11.1"] ;
869 -> 870 ;
871 [label="Compound_Sentiment <= -0.0\nsquared_error = 0.0\nsamples = 2\nvalue = 11.8"] ;
869 -> 871 ;
872 [label="squared_error = 0.0\nsamples = 1\nvalue = 11.7"] ;
871 -> 872 ;
873 [label="squared_error = -0.0\nsamples = 1\nvalue = 11.8"] ;
871 -> 873 ;
874 [label="Neutral_Sentiment <= 0.9\nsquared_error = 2.0\nsamples = 7\nvalue = 8.5"] ;
868 -> 874 ;
875 [label="score <= 10.0\nsquared_error = 1.3\nsamples = 6\nvalue = 8.2"] ;
874 -> 875 ;
876 [label="squared_error = 0.0\nsamples = 1\nvalue = 10.7"] ;
875 -> 876 ;
877 [label="Compound_Sentiment <= 0.0\nsquared_error = 0.6\nsamples = 5\nvalue = 7.8"] ;
875 -> 877 ;
878 [label="Negative_Sentiment <= 0.1\nsquared_error = 0.0\nsamples = 2\nvalue = 6.6"] ;
877 -> 878 ;
879 [label="squared_error = 0.0\nsamples = 1\nvalue = 6.6"] ;
878 -> 879 ;
880 [label="squared_error = -0.0\nsamples = 1\nvalue = 6.6"] ;
878 -> 880 ;
881 [label="Positive_Sentiment <= 0.1\nsquared_error = 0.1\nsamples = 3\nvalue = 8.3"] ;
877 -> 881 ;
882 [label="squared_error = 0.0\nsamples = 1\nvalue = 8.5"] ;
881 -> 882 ;
883 [label="num_comments <= 11.6\nsquared_error = 0.0\nsamples = 2\nvalue = 7.8"] ;
881 -> 883 ;
884 [label="squared_error = 0.0\nsamples = 1\nvalue = 8.0"] ;
883 -> 884 ;
885 [label="squared_error = -0.0\nsamples = 1\nvalue = 7.6"] ;
883 -> 885 ;
886 [label="squared_error = -0.0\nsamples = 1\nvalue = 11.2"] ;
874 -> 886 ;
887 [label="Negative_Sentiment <= 0.1\nsquared_error = 3.8\nsamples = 58\nvalue = 8.7"] ;
757 -> 887 ;
888 [label="Negative_Sentiment <= 0.0\nsquared_error = 3.2\nsamples = 41\nvalue = 8.3"] ;
887 -> 888 ;
889 [label="score <= 10.6\nsquared_error = 3.1\nsamples = 5\nvalue = 10.2"] ;
888 -> 889 ;
890 [label="Compound_Sentiment <= 0.1\nsquared_error = 0.1\nsamples = 2\nvalue = 11.2"] ;
889 -> 890 ;
891 [label="squared_error = 0.0\nsamples = 1\nvalue = 11.6"] ;
890 -> 891 ;
892 [label="squared_error = -0.0\nsamples = 1\nvalue = 10.9"] ;
890 -> 892 ;
893 [label="Neutral_Sentiment <= 0.9\nsquared_error = 4.3\nsamples = 3\nvalue = 8.7"] ;
889 -> 893 ;
894 [label="squared_error = 0.0\nsamples = 1\nvalue = 11.6"] ;
893 -> 894 ;
895 [label="score <= 12.9\nsquared_error = 0.0\nsamples = 2\nvalue = 7.2"] ;
893 -> 895 ;
896 [label="squared_error = 0.0\nsamples = 1\nvalue = 7.2"] ;
895 -> 896 ;
897 [label="squared_error = -0.0\nsamples = 1\nvalue = 7.2"] ;
895 -> 897 ;
898 [label="Compound_Sentiment <= 0.1\nsquared_error = 2.6\nsamples = 36\nvalue = 8.1"] ;
888 -> 898 ;
899 [label="Neutral_Sentiment <= 0.8\nsquared_error = 1.9\nsamples = 32\nvalue = 8.4"] ;
898 -> 899 ;
900 [label="Negative_Sentiment <= 0.1\nsquared_error = 2.2\nsamples = 23\nvalue = 8.7"] ;
899 -> 900 ;
901 [label="score <= 13.1\nsquared_error = 2.6\nsamples = 16\nvalue = 9.0"] ;
900 -> 901 ;
902 [label="Positive_Sentiment <= 0.1\nsquared_error = 1.5\nsamples = 9\nvalue = 8.3"] ;
901 -> 902 ;
903 [label="score <= 12.3\nsquared_error = 0.2\nsamples = 7\nvalue = 7.9"] ;
902 -> 903 ;
904 [label="score <= 9.6\nsquared_error = 0.1\nsamples = 6\nvalue = 8.0"] ;
903 -> 904 ;
905 [label="squared_error = 0.0\nsamples = 1\nvalue = 7.1"] ;
904 -> 905 ;
906 [label="Negative_Sentiment <= 0.1\nsquared_error = 0.0\nsamples = 5\nvalue = 8.1"] ;
904 -> 906 ;
907 [label="score <= 11.0\nsquared_error = 0.0\nsamples = 2\nvalue = 7.9"] ;
906 -> 907 ;
908 [label="squared_error = 0.0\nsamples = 1\nvalue = 7.8"] ;
907 -> 908 ;
909 [label="squared_error = -0.0\nsamples = 1\nvalue = 7.9"] ;
907 -> 909 ;
910 [label="Neutral_Sentiment <= 0.8\nsquared_error = 0.0\nsamples = 3\nvalue = 8.2"] ;
906 -> 910 ;
911 [label="Neutral_Sentiment <= 0.8\nsquared_error = 0.0\nsamples = 2\nvalue = 8.2"] ;
910 -> 911 ;
912 [label="squared_error = 0.0\nsamples = 1\nvalue = 8.2"] ;
911 -> 912 ;
913 [label="squared_error = -0.0\nsamples = 1\nvalue = 8.2"] ;
911 -> 913 ;
914 [label="squared_error = 0.0\nsamples = 1\nvalue = 8.2"] ;
910 -> 914 ;
915 [label="squared_error = 0.0\nsamples = 1\nvalue = 6.7"] ;
903 -> 915 ;
916 [label="num_comments <= 12.7\nsquared_error = 3.3\nsamples = 2\nvalue = 10.0"] ;
902 -> 916 ;
917 [label="squared_error = 0.0\nsamples = 1\nvalue = 11.2"] ;
916 -> 917 ;
918 [label="squared_error = 0.0\nsamples = 1\nvalue = 7.4"] ;
916 -> 918 ;
919 [label="Compound_Sentiment <= 0.1\nsquared_error = 2.3\nsamples = 7\nvalue = 9.9"] ;
901 -> 919 ;
920 [label="Compound_Sentiment <= 0.0\nsquared_error = 1.5\nsamples = 6\nvalue = 10.5"] ;
919 -> 920 ;
921 [label="squared_error = 0.0\nsamples = 1\nvalue = 7.3"] ;
920 -> 921 ;
922 [label="Negative_Sentiment <= 0.1\nsquared_error = 0.3\nsamples = 5\nvalue = 10.9"] ;
920 -> 922 ;
923 [label="num_comments <= 11.1\nsquared_error = 0.1\nsamples = 3\nvalue = 10.5"] ;
922 -> 923 ;
924 [label="squared_error = 0.0\nsamples = 1\nvalue = 11.0"] ;
923 -> 924 ;
925 [label="Positive_Sentiment <= 0.1\nsquared_error = 0.0\nsamples = 2\nvalue = 10.4"] ;
923 -> 925 ;
926 [label="squared_error = 0.0\nsamples = 1\nvalue = 10.4"] ;
925 -> 926 ;
927 [label="squared_error = -0.0\nsamples = 1\nvalue = 10.4"] ;
925 -> 927 ;
928 [label="Positive_Sentiment <= 0.1\nsquared_error = 0.0\nsamples = 2\nvalue = 11.7"] ;
922 -> 928 ;
929 [label="squared_error = 0.0\nsamples = 1\nvalue = 11.7"] ;
928 -> 929 ;
930 [label="squared_error = 0.0\nsamples = 1\nvalue = 11.6"] ;
928 -> 930 ;
931 [label="squared_error = -0.0\nsamples = 1\nvalue = 7.9"] ;
919 -> 931 ;
932 [label="num_comments <= 14.6\nsquared_error = 0.1\nsamples = 7\nvalue = 7.8"] ;
900 -> 932 ;
933 [label="Compound_Sentiment <= 0.0\nsquared_error = 0.0\nsamples = 5\nvalue = 7.9"] ;
932 -> 933 ;
934 [label="squared_error = 0.0\nsamples = 1\nvalue = 8.1"] ;
933 -> 934 ;
935 [label="score <= 14.5\nsquared_error = 0.0\nsamples = 4\nvalue = 7.9"] ;
933 -> 935 ;
936 [label="Compound_Sentiment <= 0.0\nsquared_error = 0.0\nsamples = 2\nvalue = 7.9"] ;
935 -> 936 ;
937 [label="squared_error = 0.0\nsamples = 1\nvalue = 7.7"] ;
936 -> 937 ;
938 [label="squared_error = 0.0\nsamples = 1\nvalue = 8.1"] ;
936 -> 938 ;
939 [label="Compound_Sentiment <= 0.1\nsquared_error = 0.0\nsamples = 2\nvalue = 7.8"] ;
935 -> 939 ;
940 [label="squared_error = 0.0\nsamples = 1\nvalue = 7.8"] ;
939 -> 940 ;
941 [label="squared_error = 0.0\nsamples = 1\nvalue = 7.8"] ;
939 -> 941 ;
942 [label="Compound_Sentiment <= 0.1\nsquared_error = 0.0\nsamples = 2\nvalue = 7.2"] ;
932 -> 942 ;
943 [label="squared_error = 0.0\nsamples = 1\nvalue = 7.2"] ;
942 -> 943 ;
944 [label="squared_error = 0.0\nsamples = 1\nvalue = 7.2"] ;
942 -> 944 ;
945 [label="Negative_Sentiment <= 0.1\nsquared_error = 0.2\nsamples = 9\nvalue = 7.6"] ;
899 -> 945 ;
946 [label="Compound_Sentiment <= 0.1\nsquared_error = 0.1\nsamples = 4\nvalue = 8.0"] ;
945 -> 946 ;
947 [label="Neutral_Sentiment <= 0.9\nsquared_error = 0.0\nsamples = 3\nvalue = 7.8"] ;
946 -> 947 ;
948 [label="Compound_Sentiment <= 0.1\nsquared_error = 0.0\nsamples = 2\nvalue = 7.7"] ;
947 -> 948 ;
949 [label="squared_error = 0.0\nsamples = 1\nvalue = 7.7"] ;
948 -> 949 ;
950 [label="squared_error = 0.0\nsamples = 1\nvalue = 7.7"] ;
948 -> 950 ;
951 [label="squared_error = -0.0\nsamples = 1\nvalue = 7.9"] ;
947 -> 951 ;
952 [label="squared_error = 0.0\nsamples = 1\nvalue = 8.2"] ;
946 -> 952 ;
953 [label="num_comments <= 11.0\nsquared_error = 0.1\nsamples = 5\nvalue = 7.2"] ;
945 -> 953 ;
954 [label="Negative_Sentiment <= 0.1\nsquared_error = 0.0\nsamples = 2\nvalue = 6.8"] ;
953 -> 954 ;
955 [label="squared_error = 0.0\nsamples = 1\nvalue = 7.0"] ;
954 -> 955 ;
956 [label="squared_error = -0.0\nsamples = 1\nvalue = 6.6"] ;
954 -> 956 ;
957 [label="Positive_Sentiment <= 0.1\nsquared_error = 0.0\nsamples = 3\nvalue = 7.4"] ;
953 -> 957 ;
958 [label="squared_error = 0.0\nsamples = 1\nvalue = 7.2"] ;
957 -> 958 ;
959 [label="Neutral_Sentiment <= 0.8\nsquared_error = 0.0\nsamples = 2\nvalue = 7.6"] ;
957 -> 959 ;
960 [label="squared_error = 0.0\nsamples = 1\nvalue = 7.5"] ;
959 -> 960 ;
961 [label="squared_error = 0.0\nsamples = 1\nvalue = 7.7"] ;
959 -> 961 ;
962 [label="score <= 10.3\nsquared_error = 1.6\nsamples = 4\nvalue = 5.5"] ;
898 -> 962 ;
963 [label="num_comments <= 20.2\nsquared_error = 0.0\nsamples = 2\nvalue = 4.6"] ;
962 -> 963 ;
964 [label="squared_error = 0.0\nsamples = 1\nvalue = 4.5"] ;
963 -> 964 ;
965 [label="squared_error = 0.0\nsamples = 1\nvalue = 4.7"] ;
963 -> 965 ;
966 [label="Negative_Sentiment <= 0.0\nsquared_error = 0.1\nsamples = 2\nvalue = 7.3"] ;
962 -> 966 ;
967 [label="squared_error = 0.0\nsamples = 1\nvalue = 7.0"] ;
966 -> 967 ;
968 [label="squared_error = 0.0\nsamples = 1\nvalue = 7.5"] ;
966 -> 968 ;
969 [label="Compound_Sentiment <= 0.1\nsquared_error = 4.1\nsamples = 17\nvalue = 9.7"] ;
887 -> 969 ;
970 [label="num_comments <= 11.4\nsquared_error = 2.7\nsamples = 15\nvalue = 10.3"] ;
969 -> 970 ;
971 [label="Neutral_Sentiment <= 0.8\nsquared_error = 2.2\nsamples = 3\nvalue = 8.3"] ;
970 -> 971 ;
972 [label="Compound_Sentiment <= 0.0\nsquared_error = 0.3\nsamples = 2\nvalue = 7.3"] ;
971 -> 972 ;
973 [label="squared_error = 0.0\nsamples = 1\nvalue = 7.8"] ;
972 -> 973 ;
974 [label="squared_error = 0.0\nsamples = 1\nvalue = 6.7"] ;
972 -> 974 ;
975 [label="squared_error = -0.0\nsamples = 1\nvalue = 10.3"] ;
971 -> 975 ;
976 [label="Negative_Sentiment <= 0.1\nsquared_error = 1.9\nsamples = 12\nvalue = 10.7"] ;
970 -> 976 ;
977 [label="score <= 13.1\nsquared_error = 2.2\nsamples = 5\nvalue = 9.4"] ;
976 -> 977 ;
978 [label="Neutral_Sentiment <= 0.8\nsquared_error = 0.8\nsamples = 3\nvalue = 10.5"] ;
977 -> 978 ;
979 [label="Compound_Sentiment <= 0.1\nsquared_error = 0.0\nsamples = 2\nvalue = 9.8"] ;
978 -> 979 ;
980 [label="squared_error = 0.0\nsamples = 1\nvalue = 9.9"] ;
979 -> 980 ;
981 [label="squared_error = -0.0\nsamples = 1\nvalue = 9.8"] ;
979 -> 981 ;
982 [label="squared_error = 0.0\nsamples = 1\nvalue = 11.8"] ;
978 -> 982 ;
983 [label="Negative_Sentiment <= 0.1\nsquared_error = 0.2\nsamples = 2\nvalue = 7.9"] ;
977 -> 983 ;
984 [label="squared_error = 0.0\nsamples = 1\nvalue = 8.3"] ;
983 -> 984 ;
985 [label="squared_error = 0.0\nsamples = 1\nvalue = 7.5"] ;
983 -> 985 ;
986 [label="Negative_Sentiment <= 0.1\nsquared_error = 0.8\nsamples = 7\nvalue = 11.2"] ;
976 -> 986 ;
987 [label="Positive_Sentiment <= 0.1\nsquared_error = 0.4\nsamples = 6\nvalue = 11.0"] ;
986 -> 987 ;
988 [label="squared_error = 0.0\nsamples = 1\nvalue = 9.5"] ;
987 -> 988 ;
989 [label="score <= 11.4\nsquared_error = 0.2\nsamples = 5\nvalue = 11.1"] ;
987 -> 989 ;
990 [label="score <= 10.6\nsquared_error = 0.0\nsamples = 2\nvalue = 11.7"] ;
989 -> 990 ;
991 [label="squared_error = 0.0\nsamples = 1\nvalue = 11.8"] ;
990 -> 991 ;
992 [label="squared_error = 0.0\nsamples = 1\nvalue = 11.6"] ;
990 -> 992 ;
993 [label="Negative_Sentiment <= 0.1\nsquared_error = 0.1\nsamples = 3\nvalue = 10.9"] ;
989 -> 993 ;
994 [label="Neutral_Sentiment <= 0.8\nsquared_error = 0.0\nsamples = 2\nvalue = 11.0"] ;
993 -> 994 ;
995 [label="squared_error = 0.0\nsamples = 1\nvalue = 11.0"] ;
994 -> 995 ;
996 [label="squared_error = -0.0\nsamples = 1\nvalue = 11.1"] ;
994 -> 996 ;
997 [label="squared_error = -0.0\nsamples = 1\nvalue = 10.2"] ;
993 -> 997 ;
998 [label="squared_error = 0.0\nsamples = 1\nvalue = 13.5"] ;
986 -> 998 ;
999 [label="Positive_Sentiment <= 0.1\nsquared_error = 0.1\nsamples = 2\nvalue = 6.7"] ;
969 -> 999 ;
1000 [label="squared_error = 0.0\nsamples = 1\nvalue = 6.2"] ;
999 -> 1000 ;
1001 [label="squared_error = 0.0\nsamples = 1\nvalue = 6.9"] ;
999 -> 1001 ;
1002 [label="Compound_Sentiment <= 0.1\nsquared_error = 3.1\nsamples = 3\nvalue = 11.9"] ;
736 -> 1002 ;
1003 [label="score <= 11.0\nsquared_error = 0.2\nsamples = 2\nvalue = 12.9"] ;
1002 -> 1003 ;
1004 [label="squared_error = 0.0\nsamples = 1\nvalue = 12.3"] ;
1003 -> 1004 ;
1005 [label="squared_error = -0.0\nsamples = 1\nvalue = 13.2"] ;
1003 -> 1005 ;
1006 [label="squared_error = 0.0\nsamples = 1\nvalue = 8.9"] ;
1002 -> 1006 ;
1007 [label="Compound_Sentiment <= 0.1\nsquared_error = 33.6\nsamples = 247\nvalue = 5.7"] ;
1 -> 1007 ;
1008 [label="score <= 35.8\nsquared_error = 2.6\nsamples = 243\nvalue = 5.2"] ;
1007 -> 1008 ;
1009 [label="Neutral_Sentiment <= 0.8\nsquared_error = 1.5\nsamples = 128\nvalue = 6.0"] ;
1008 -> 1009 ;
1010 [label="Compound_Sentiment <= 0.1\nsquared_error = 0.3\nsamples = 2\nvalue = 11.3"] ;
1009 -> 1010 ;
1011 [label="squared_error = 0.0\nsamples = 1\nvalue = 10.5"] ;
1010 -> 1011 ;
1012 [label="squared_error = 0.0\nsamples = 1\nvalue = 11.6"] ;
1010 -> 1012 ;
1013 [label="score <= 22.9\nsquared_error = 1.0\nsamples = 126\nvalue = 5.9"] ;
1009 -> 1013 ;
1014 [label="num_comments <= 19.1\nsquared_error = 1.5\nsamples = 48\nvalue = 6.5"] ;
1013 -> 1014 ;
1015 [label="Positive_Sentiment <= 0.1\nsquared_error = 1.1\nsamples = 47\nvalue = 6.4"] ;
1014 -> 1015 ;
1016 [label="squared_error = 0.0\nsamples = 1\nvalue = 11.1"] ;
1015 -> 1016 ;
1017 [label="Positive_Sentiment <= 0.1\nsquared_error = 0.8\nsamples = 46\nvalue = 6.4"] ;
1015 -> 1017 ;
1018 [label="Compound_Sentiment <= 0.1\nsquared_error = 0.8\nsamples = 22\nvalue = 6.7"] ;
1017 -> 1018 ;
1019 [label="Positive_Sentiment <= 0.1\nsquared_error = 0.6\nsamples = 21\nvalue = 6.6"] ;
1018 -> 1019 ;
1020 [label="num_comments <= 12.7\nsquared_error = 0.4\nsamples = 20\nvalue = 6.5"] ;
1019 -> 1020 ;
1021 [label="Positive_Sentiment <= 0.1\nsquared_error = 0.3\nsamples = 7\nvalue = 6.0"] ;
1020 -> 1021 ;
1022 [label="Neutral_Sentiment <= 0.9\nsquared_error = 0.1\nsamples = 3\nvalue = 5.6"] ;
1021 -> 1022 ;
1023 [label="squared_error = 0.0\nsamples = 1\nvalue = 5.3"] ;
1022 -> 1023 ;
1024 [label="Positive_Sentiment <= 0.1\nsquared_error = 0.0\nsamples = 2\nvalue = 5.7"] ;
1022 -> 1024 ;
1025 [label="squared_error = 0.0\nsamples = 1\nvalue = 5.9"] ;
1024 -> 1025 ;
1026 [label="squared_error = 0.0\nsamples = 1\nvalue = 5.7"] ;
1024 -> 1026 ;
1027 [label="Neutral_Sentiment <= 0.8\nsquared_error = 0.2\nsamples = 4\nvalue = 6.6"] ;
1021 -> 1027 ;
1028 [label="score <= 20.6\nsquared_error = 0.0\nsamples = 2\nvalue = 6.2"] ;
1027 -> 1028 ;
1029 [label="squared_error = 0.0\nsamples = 1\nvalue = 6.3"] ;
1028 -> 1029 ;
1030 [label="squared_error = -0.0\nsamples = 1\nvalue = 6.2"] ;
1028 -> 1030 ;
1031 [label="num_comments <= 11.4\nsquared_error = 0.0\nsamples = 2\nvalue = 6.9"] ;
1027 -> 1031 ;
1032 [label="squared_error = 0.0\nsamples = 1\nvalue = 6.7"] ;
1031 -> 1032 ;
1033 [label="squared_error = -0.0\nsamples = 1\nvalue = 7.1"] ;
1031 -> 1033 ;
1034 [label="Positive_Sentiment <= 0.1\nsquared_error = 0.2\nsamples = 13\nvalue = 6.7"] ;
1020 -> 1034 ;
1035 [label="Positive_Sentiment <= 0.1\nsquared_error = 0.1\nsamples = 5\nvalue = 7.2"] ;
1034 -> 1035 ;
1036 [label="squared_error = 0.0\nsamples = 1\nvalue = 6.8"] ;
1035 -> 1036 ;
1037 [label="Neutral_Sentiment <= 0.9\nsquared_error = 0.0\nsamples = 4\nvalue = 7.3"] ;
1035 -> 1037 ;
1038 [label="score <= 18.1\nsquared_error = 0.0\nsamples = 3\nvalue = 7.3"] ;
1037 -> 1038 ;
1039 [label="squared_error = 0.0\nsamples = 1\nvalue = 7.2"] ;
1038 -> 1039 ;
1040 [label="Positive_Sentiment <= 0.1\nsquared_error = 0.0\nsamples = 2\nvalue = 7.3"] ;
1038 -> 1040 ;
1041 [label="squared_error = 0.0\nsamples = 1\nvalue = 7.3"] ;
1040 -> 1041 ;
1042 [label="squared_error = 0.0\nsamples = 1\nvalue = 7.3"] ;
1040 -> 1042 ;
1043 [label="squared_error = 0.0\nsamples = 1\nvalue = 7.6"] ;
1037 -> 1043 ;
1044 [label="Positive_Sentiment <= 0.1\nsquared_error = 0.1\nsamples = 8\nvalue = 6.5"] ;
1034 -> 1044 ;
1045 [label="score <= 21.5\nsquared_error = 0.0\nsamples = 2\nvalue = 6.0"] ;
1044 -> 1045 ;
1046 [label="squared_error = 0.0\nsamples = 1\nvalue = 5.9"] ;
1045 -> 1046 ;
1047 [label="squared_error = 0.0\nsamples = 1\nvalue = 6.1"] ;
1045 -> 1047 ;
1048 [label="num_comments <= 13.4\nsquared_error = 0.1\nsamples = 6\nvalue = 6.6"] ;
1044 -> 1048 ;
1049 [label="squared_error = 0.0\nsamples = 1\nvalue = 7.4"] ;
1048 -> 1049 ;
1050 [label="score <= 22.3\nsquared_error = 0.0\nsamples = 5\nvalue = 6.5"] ;
1048 -> 1050 ;
1051 [label="num_comments <= 14.4\nsquared_error = 0.0\nsamples = 4\nvalue = 6.5"] ;
1050 -> 1051 ;
1052 [label="num_comments <= 14.0\nsquared_error = 0.0\nsamples = 2\nvalue = 6.5"] ;
1051 -> 1052 ;
1053 [label="squared_error = 0.0\nsamples = 1\nvalue = 6.5"] ;
1052 -> 1053 ;
1054 [label="squared_error = -0.0\nsamples = 1\nvalue = 6.4"] ;
1052 -> 1054 ;
1055 [label="Neutral_Sentiment <= 0.8\nsquared_error = 0.0\nsamples = 2\nvalue = 6.5"] ;
1051 -> 1055 ;
1056 [label="squared_error = 0.0\nsamples = 1\nvalue = 6.5"] ;
1055 -> 1056 ;
1057 [label="squared_error = 0.0\nsamples = 1\nvalue = 6.5"] ;
1055 -> 1057 ;
1058 [label="squared_error = 0.0\nsamples = 1\nvalue = 6.6"] ;
1050 -> 1058 ;
1059 [label="squared_error = -0.0\nsamples = 1\nvalue = 8.1"] ;
1019 -> 1059 ;
1060 [label="squared_error = 0.0\nsamples = 1\nvalue = 9.5"] ;
1018 -> 1060 ;
1061 [label="Negative_Sentiment <= 0.1\nsquared_error = 0.5\nsamples = 24\nvalue = 6.0"] ;
1017 -> 1061 ;
1062 [label="Neutral_Sentiment <= 0.8\nsquared_error = 0.4\nsamples = 23\nvalue = 5.9"] ;
1061 -> 1062 ;
1063 [label="Positive_Sentiment <= 0.1\nsquared_error = 0.3\nsamples = 13\nvalue = 5.6"] ;
1062 -> 1063 ;
1064 [label="score <= 22.2\nsquared_error = 0.2\nsamples = 6\nvalue = 5.3"] ;
1063 -> 1064 ;
1065 [label="score <= 20.1\nsquared_error = 0.1\nsamples = 5\nvalue = 5.2"] ;
1064 -> 1065 ;
1066 [label="num_comments <= 14.1\nsquared_error = 0.0\nsamples = 3\nvalue = 5.3"] ;
1065 -> 1066 ;
1067 [label="squared_error = 0.0\nsamples = 1\nvalue = 5.2"] ;
1066 -> 1067 ;
1068 [label="score <= 19.1\nsquared_error = 0.0\nsamples = 2\nvalue = 5.5"] ;
1066 -> 1068 ;
1069 [label="squared_error = 0.0\nsamples = 1\nvalue = 5.4"] ;
1068 -> 1069 ;
1070 [label="squared_error = 0.0\nsamples = 1\nvalue = 5.6"] ;
1068 -> 1070 ;
1071 [label="Compound_Sentiment <= 0.0\nsquared_error = 0.0\nsamples = 2\nvalue = 4.6"] ;
1065 -> 1071 ;
1072 [label="squared_error = 0.0\nsamples = 1\nvalue = 4.8"] ;
1071 -> 1072 ;
1073 [label="squared_error = -0.0\nsamples = 1\nvalue = 4.5"] ;
1071 -> 1073 ;
1074 [label="squared_error = 0.0\nsamples = 1\nvalue = 6.4"] ;
1064 -> 1074 ;
1075 [label="score <= 18.7\nsquared_error = 0.1\nsamples = 7\nvalue = 5.9"] ;
1063 -> 1075 ;
1076 [label="score <= 18.0\nsquared_error = 0.0\nsamples = 2\nvalue = 5.4"] ;
1075 -> 1076 ;
1077 [label="squared_error = 0.0\nsamples = 1\nvalue = 5.3"] ;
1076 -> 1077 ;
1078 [label="squared_error = 0.0\nsamples = 1\nvalue = 5.4"] ;
1076 -> 1078 ;
1079 [label="score <= 20.1\nsquared_error = 0.0\nsamples = 5\nvalue = 6.1"] ;
1075 -> 1079 ;
1080 [label="Compound_Sentiment <= 0.1\nsquared_error = 0.0\nsamples = 3\nvalue = 6.0"] ;
1079 -> 1080 ;
1081 [label="Negative_Sentiment <= 0.1\nsquared_error = 0.0\nsamples = 2\nvalue = 6.0"] ;
1080 -> 1081 ;
1082 [label="squared_error = 0.0\nsamples = 1\nvalue = 6.0"] ;
1081 -> 1082 ;
1083 [label="squared_error = 0.0\nsamples = 1\nvalue = 6.0"] ;
1081 -> 1083 ;
1084 [label="squared_error = -0.0\nsamples = 1\nvalue = 5.7"] ;
1080 -> 1084 ;
1085 [label="score <= 20.7\nsquared_error = 0.0\nsamples = 2\nvalue = 6.3"] ;
1079 -> 1085 ;
1086 [label="squared_error = 0.0\nsamples = 1\nvalue = 6.5"] ;
1085 -> 1086 ;
1087 [label="squared_error = 0.0\nsamples = 1\nvalue = 6.2"] ;
1085 -> 1087 ;
1088 [label="score <= 22.0\nsquared_error = 0.2\nsamples = 10\nvalue = 6.5"] ;
1062 -> 1088 ;
1089 [label="Positive_Sentiment <= 0.1\nsquared_error = 0.1\nsamples = 8\nvalue = 6.6"] ;
1088 -> 1089 ;
1090 [label="Positive_Sentiment <= 0.1\nsquared_error = 0.1\nsamples = 4\nvalue = 6.4"] ;
1089 -> 1090 ;
1091 [label="Positive_Sentiment <= 0.1\nsquared_error = 0.0\nsamples = 2\nvalue = 6.6"] ;
1090 -> 1091 ;
1092 [label="squared_error = 0.0\nsamples = 1\nvalue = 6.6"] ;
1091 -> 1092 ;
1093 [label="squared_error = 0.0\nsamples = 1\nvalue = 6.6"] ;
1091 -> 1093 ;
1094 [label="Negative_Sentiment <= 0.1\nsquared_error = 0.0\nsamples = 2\nvalue = 6.1"] ;
1090 -> 1094 ;
1095 [label="squared_error = 0.0\nsamples = 1\nvalue = 6.3"] ;
1094 -> 1095 ;
1096 [label="squared_error = 0.0\nsamples = 1\nvalue = 5.9"] ;
1094 -> 1096 ;
1097 [label="num_comments <= 14.4\nsquared_error = 0.0\nsamples = 4\nvalue = 6.8"] ;
1089 -> 1097 ;
1098 [label="Neutral_Sentiment <= 0.8\nsquared_error = 0.0\nsamples = 3\nvalue = 6.8"] ;
1097 -> 1098 ;
1099 [label="Negative_Sentiment <= 0.0\nsquared_error = 0.0\nsamples = 2\nvalue = 6.8"] ;
1098 -> 1099 ;
1100 [label="squared_error = 0.0\nsamples = 1\nvalue = 6.8"] ;
1099 -> 1100 ;
1101 [label="squared_error = -0.0\nsamples = 1\nvalue = 6.7"] ;
1099 -> 1101 ;
1102 [label="squared_error = 0.0\nsamples = 1\nvalue = 7.0"] ;
1098 -> 1102 ;
1103 [label="squared_error = -0.0\nsamples = 1\nvalue = 6.3"] ;
1097 -> 1103 ;
1104 [label="Neutral_Sentiment <= 0.8\nsquared_error = 0.0\nsamples = 2\nvalue = 5.7"] ;
1088 -> 1104 ;
1105 [label="squared_error = 0.0\nsamples = 1\nvalue = 5.6"] ;
1104 -> 1105 ;
1106 [label="squared_error = -0.0\nsamples = 1\nvalue = 5.8"] ;
1104 -> 1106 ;
1107 [label="squared_error = 0.0\nsamples = 1\nvalue = 7.6"] ;
1061 -> 1107 ;
1108 [label="squared_error = -0.0\nsamples = 1\nvalue = 11.9"] ;
1014 -> 1108 ;
1109 [label="num_comments <= 15.5\nsquared_error = 0.5\nsamples = 78\nvalue = 5.6"] ;
1013 -> 1109 ;
1110 [label="Compound_Sentiment <= 0.0\nsquared_error = 0.5\nsamples = 59\nvalue = 5.4"] ;
1109 -> 1110 ;
1111 [label="Compound_Sentiment <= 0.0\nsquared_error = 0.7\nsamples = 21\nvalue = 5.0"] ;
1110 -> 1111 ;
1112 [label="score <= 24.6\nsquared_error = 0.4\nsamples = 13\nvalue = 5.4"] ;
1111 -> 1112 ;
1113 [label="Positive_Sentiment <= 0.1\nsquared_error = 0.2\nsamples = 3\nvalue = 6.1"] ;
1112 -> 1113 ;
1114 [label="squared_error = 0.0\nsamples = 1\nvalue = 6.8"] ;
1113 -> 1114 ;
1115 [label="Compound_Sentiment <= -0.0\nsquared_error = 0.1\nsamples = 2\nvalue = 5.9"] ;
1113 -> 1115 ;
1116 [label="squared_error = 0.0\nsamples = 1\nvalue = 6.0"] ;
1115 -> 1116 ;
